\data\
ngram 1=53
ngram 2=1950
ngram 3=20730

\1-grams:
-3.1223764	<unk>	0
0	<s>	-2.8881333
-1.5913153	</s>	0
-1.6670837	ह	-0.85531795
-1.6992913	े	-0.9875231
-1.6371006	ड	-0.9495402
-1.5827101	म	-1.0277964
-1.6775564	ा	-1.0741072
-1.5913153	स	-0.99766576
-1.688288	्	-0.9108145
-1.6182034	ट	-0.97064465
-1.5913153	र	-1.1395435
-1.7719004	ए	-0.7813141
-1.8280689	आ	-0.5720588
-1.7463247	इ	-0.64646465
-1.6371006	श	-0.8426557
-1.7463247	ो	-0.9877158
-1.6371006	ब	-0.9230916
-1.7589242	ु	-0.9719657
-1.6000943	क	-1.0426942
-1.6090544	ज	-0.9624634
-1.6000943	द	-0.9515275
-1.5827101	न	-1.1092861
-1.9481817	उ	-0.43876225
-1.892596	़	-0.53340393
-1.5913153	ग	-0.9124334
-1.8133311	ै	-0.878338
-1.5913153	ल	-1.0917623
-1.6992913	ि	-1.0273387
-1.7340803	ी	-0.9166705
-1.6090544	प	-0.9605439
-1.6090544	ं	-0.9847739
-1.5913153	व	-0.9574194
-1.6670837	च	-0.80847675
-1.6670837	फ	-0.8463626
-1.7105808	भ	-0.6069002
-1.688288	ख	-0.6855653
-1.6182034	य	-0.8671122
-1.8433242	अ	-0.50386745
-1.6090544	त	-0.93299687
-1.7105808	ई	-0.6736436
-1.7463247	ध	-0.7248696
-1.7990773	ू	-0.81941175
-1.6992913	थ	-0.7781962
-1.8433242	ौ	-0.68289757
-2.177056	ँ	-0.36357242
-1.8755434	ष	-0.53864926
-1.892596	ठ	-0.47476795
-1.9684123	ढ	-0.43739137
-1.688288	ण	-0.6650097
-1.8591352	घ	-0.52488697
-2.0354586	छ	-0.3791981
-2.0354586	ृ	-0.40559188

\2-grams:
-1.2969638	ह </s>	0
-1.2871381	े </s>	0
-1.2007847	ड </s>	0
-1.2277311	म </s>	0
-1.4017706	ा </s>	0
-1.2240878	स </s>	0
-1.2625569	् </s>	0
-1.2099396	ट </s>	0
-1.3506337	र </s>	0
-1.1819533	ए </s>	0
-1.235782	आ </s>	0
-1.2889977	इ </s>	0
-1.2648653	श </s>	0
-1.3444687	ो </s>	0
-1.2911786	ब </s>	0
-1.3207531	ु </s>	0
-1.248891	क </s>	0
-1.2190466	ज </s>	0
-1.2031082	द </s>	0
-1.2584643	न </s>	0
-1.1058106	उ </s>	0
-1.1476712	़ </s>	0
-1.3794472	ग </s>	0
-1.4851185	ै </s>	0
-1.2838335	ल </s>	0
-1.4031254	ि </s>	0
-1.2562071	ी </s>	0
-1.3206302	प </s>	0
-1.2882149	ं </s>	0
-1.2541051	व </s>	0
-1.2415987	च </s>	0
-1.2464825	फ </s>	0
-1.5821733	भ </s>	0
-1.3605235	ख </s>	0
-1.147105	य </s>	0
-1.7656543	अ </s>	0
-1.1391761	त </s>	0
-0.74398005	ई </s>	0
-1.1090668	ध </s>	0
-1.1551987	ू </s>	0
-1.1055889	थ </s>	0
-1.5198107	ौ </s>	0
-1.2749124	ँ </s>	0
-1.0688007	ष </s>	0
-1.0444075	ठ </s>	0
-1.5158517	ढ </s>	0
-0.96106154	ण </s>	0
-1.3088969	घ </s>	0
-1.1643093	छ </s>	0
-1.4657344	ृ </s>	0
-1.4584804	<s> ह	-1.5467633
-2.274484	ह ह	-0.8460717
-1.5327176	े ह	-0.7322378
-1.957193	ड ह	-0.29301652
-1.8540692	म ह	-1.0194479
-1.5758274	ा ह	-1.1324503
-2.0029583	स ह	-0.4929996
-1.610313	् ह	-0.82621765
-1.9296236	ट ह	-0.2863961
-1.5942172	र ह	-0.915533
-2.2604206	ए ह	-0.2802207
-1.5795202	आ ह	-0.29023403
-1.6734513	इ ह	-0.29100513
-1.7669203	श ह	-0.5408137
-1.5829057	ो ह	-0.8016757
-1.9088169	ब ह	-0.7027339
-1.6991427	ु ह	-0.4969448
-1.9369808	क ह	-0.51950496
-1.9744802	ज ह	-0.87142307
-2.142833	द ह	-0.28004786
-1.6018298	न ह	-0.57444286
-1.7345332	़ ह	-0.34751743
-1.9252875	ग ह	-0.28602216
-1.9389093	ै ह	-0.28939763
-1.6865245	ल ह	-0.4803702
-1.6966668	ि ह	-0.82257134
-1.727411	ी ह	-0.4774294
-2.1039896	प ह	-0.39854208
-1.8136599	ं ह	-0.5916717
-1.871577	व ह	-0.48608118
-2.203284	च ह	-0.43914458
-2.2185445	य ह	-0.28804177
-1.7994949	अ ह	-0.46081614
-1.9555054	त ह	-0.46110737
-2.124741	ई ह	-0.27987513
-1.7303525	ू ह	-0.47439283
-2.2463448	थ ह	-0.27987513
-1.4126981	ौ ह	-0.38022023
-1.720526	ँ ह	-0.27987513
-1.8775469	ठ ह	-0.30200368
-2.1290095	ण ह	-0.27987513
-1.2970214	ृ ह	-0.3784699
-1.265268	ह े	-1.0604532
-2.440752	े े	-0.27987513
-1.2969922	ड े	-1.2179337
-1.3149717	म े	-1.3860502
-2.5455158	ा े	-0.27987513
-1.2974312	स े	-1.3501718
-1.2400985	ट े	-1.4545784
-1.4248515	र े	-1.5785072
-1.3931623	श े	-0.79174113
-2.441447	ो े	-0.27987513
-1.2522138	ब े	-1.2719911
-1.3428569	क े	-1.3382535
-1.2669573	ज े	-1.1366503
-1.1934692	द े	-1.1164954
-1.3203049	न े	-1.331687
-1.4134624	़ े	-0.735276
-1.3515996	ग े	-1.0110867
-2.3925261	ै े	-0.27987513
-1.3075168	ल े	-1.4415772
-2.3230581	ी े	-0.27987513
-1.3576702	प े	-1.187823
-2.5169637	ं े	-0.27987513
-1.1721269	व े	-1.2892175
-1.2057229	च े	-0.90014994
-1.252682	फ े	-0.94799274
-1.5129478	भ े	-0.28777435
-1.4219539	ख े	-0.44896173
-1.4182839	य े	-0.7683208
-1.9504449	अ े	-0.27987513
-1.2986962	त े	-0.8333354
-1.306217	ध े	-0.38022023
-2.2634022	ू े	-0.28027833
-1.2065489	थ े	-0.7364111
-1.7682619	ष े	-0.68412346
-1.259193	ठ े	-0.38022023
-1.5462402	ढ े	-0.29301652
-1.3784744	ण े	-0.74786454
-1.421428	घ े	-0.32803434
-1.3106669	छ े	-0.29301652
-1.5911558	<s> ड	-1.5649799
-2.0635915	ह ड	-0.7154942
-1.4468901	े ड	-1.2472944
-2.1397648	ड ड	-0.28011698
-1.9873011	म ड	-0.6919998
-1.5041599	ा ड	-1.0600808
-1.9378631	स ड	-0.72260153
-1.4791894	् ड	-1.4728551
-2.3136652	ट ड	-0.41944024
-1.7440746	र ड	-0.6127246
-1.8040112	ए ड	-0.78115666
-1.8394134	आ ड	-0.28014386
-1.2939147	इ ड	-1.1405492
-2.3244894	श ड	-0.28048006
-1.4295858	ो ड	-1.11429
-1.8433081	ब ड	-0.658913
-1.5971481	ु ड	-0.8276989
-1.7390461	क ड	-0.5603555
-2.051811	ज ड	-0.43939382
-2.27306	द ड	-0.39327493
-1.8643907	न ड	-0.49851042
-1.6364695	उ ड	-0.3690605
-1.724044	़ ड	-0.34025902
-1.6840098	ग ड	-0.6483428
-1.4253463	ै ड	-0.7110381
-1.8603246	ल ड	-0.50011426
-1.5595404	ि ड	-1.0398508
-1.5881255	ी ड	-1.1518967
-1.83511	प ड	-0.66247827
-1.1605914	ं ड	-1.4635862
-1.9945575	व ड	-0.44639516
-1.9820323	च ड	-0.7791249
-2.2086701	फ ड	-0.55841947
-2.0496268	भ ड	-0.2963649
-1.960189	ख ड	-0.35846135
-1.8799809	य ड	-0.4965989
-1.7864938	अ ड	-0.28017744
-1.3503603	ई ड	-0.9913089
-1.4183619	ू ड	-0.70169735
-1.8909023	थ ड	-0.34721303
-1.2762461	ौ ड	-0.6015713
-1.0569838	ँ ड	-0.28014386
-1.9506003	ष ड	-0.27987513
-2.1099846	ण ड	-0.27987513
-1.7840346	घ ड	-0.2801775
-1.101732	<s> म	-1.8296553
-1.4351326	ह म	-0.73179424
-1.3899738	े म	-1.1304519
-1.5320064	ड म	-0.7923986
-1.925705	म म	-0.4706623
-1.4698229	ा म	-1.364126
-1.4925919	स म	-0.8718783
-1.3350028	् म	-1.3090303
-1.475547	ट म	-0.90676737
-1.4650499	र म	-1.0945486
-1.2308774	ए म	-1.162021
-1.5595928	आ म	-0.4235372
-1.4947388	इ म	-0.76115125
-1.4426017	श म	-0.5293778
-1.4259051	ो म	-1.1994534
-1.8898414	ब म	-0.4474614
-1.3360599	ु म	-0.9646393
-1.5004807	क म	-1.1702967
-1.5802311	ज म	-0.62395525
-1.6196698	द म	-0.5474881
-1.4615968	न म	-0.78905797
-1.169448	उ म	-0.57479936
-1.521603	़ म	-0.7215938
-1.5025164	ग म	-0.77025396
-1.2934456	ै म	-0.9540823
-1.4586711	ल म	-0.99985135
-1.3715941	ि म	-1.107727
-1.3798102	ी म	-0.9804784
-1.6349107	प म	-0.7221046
-1.7120275	ं म	-0.38525066
-1.8043224	व म	-0.32896498
-1.5475619	च म	-0.54125375
-2.178936	फ म	-0.27987513
-1.8397163	भ म	-0.4269424
-1.4076276	ख म	-0.41377723
-1.3165655	य म	-1.2380881
-1.4126523	अ म	-0.9723106
-1.4293644	त म	-0.7594578
-1.7385794	ई म	-0.33990043
-1.5419976	ध म	-0.4546455
-1.3161358	ू म	-0.91379523
-1.4877745	थ म	-0.50499743
-1.3538649	ौ म	-0.35414648
-1.6771663	ँ म	-0.27987513
-1.3582201	ष म	-0.31444773
-1.6236894	ठ म	-0.49713653
-1.5131918	ढ म	-0.30200368
-1.3163537	ण म	-0.39530835
-1.5198786	घ म	-0.47928554
-1.6926138	छ म	-0.27987513
-1.6992718	ृ म	-0.27987513
-4.415011	<s> ा	-0.27987513
-1.0981046	ह ा	-1.3101909
-2.4282851	े ा	-0.28048006
-1.247776	ड ा	-1.190725
-1.2705255	म ा	-1.5462759
-2.1665566	ा ा	-0.2800767
-1.2493013	स ा	-1.3689893
-1.2667456	ट ा	-1.2360637
-1.3447556	र ा	-1.7772868
-1.0197073	श ा	-1.0163602
-2.4289658	ो ा	-0.27987513
-1.2108065	ब ा	-1.4125445
-2.4988058	ु ा	-0.27987513
-1.2729045	क ा	-1.5416963
-1.209133	ज ा	-1.1317364
-1.0729737	द ा	-1.1762776
-1.2798711	न ा	-1.5589944
-1.3079891	़ ा	-1.1043465
-1.1733932	ग ा	-1.1771824
-2.378211	ै ा	-0.27987513
-1.3067853	ल ा	-1.5673454
-2.4631982	ि ा	-0.27987513
-2.180383	ी ा	-0.29301652
-1.1956184	प ा	-1.3530881
-2.401456	ं ा	-0.27987513
-1.0805528	व ा	-1.5622606
-1.1478245	च ा	-0.96535176
-1.1700873	फ ा	-1.130311
-0.8435311	भ ा	-0.93799305
-1.0101372	ख ा	-0.805339
-1.073153	य ा	-1.6884475
-1.1307029	त ा	-1.2941663
-0.82985485	ध ा	-0.9828272
-2.251194	ू ा	-0.27987513
-1.0689957	थ ा	-0.85140985
-1.0345759	ष ा	-0.5993937
-0.87556803	ठ ा	-0.67377144
-1.2214615	ढ ा	-0.31927255
-1.2043729	ण ा	-0.6208161
-0.8747188	घ ा	-0.77224344
-1.3068794	छ ा	-0.36392286
-1.0162841	<s> स	-1.9105163
-1.526761	ह स	-0.50421035
-1.4075433	े स	-1.4600427
-1.5958838	ड स	-0.7227241
-1.5657096	म स	-0.9292491
-1.4703772	ा स	-1.3884368
-1.7918248	स स	-0.8849491
-1.3559489	् स	-1.6767555
-1.5513065	ट स	-0.84925175
-1.4655213	र स	-1.1899997
-1.2060227	ए स	-1.3758619
-1.474104	आ स	-0.6843176
-1.2135272	इ स	-0.9987595
-1.6922799	श स	-0.49506724
-1.4088199	ो स	-1.3471366
-1.4828176	ब स	-0.61911684
-1.4459438	ु स	-0.896404
-1.5587802	क स	-0.9104589
-1.7761118	ज स	-0.7196455
-1.6593065	द स	-0.31252548
-1.4620984	न स	-0.9774374
-1.339434	उ स	-0.67205924
-1.6058382	़ स	-0.6664457
-1.8505906	ग स	-0.879523
-1.3406065	ै स	-0.9754639
-1.4591898	ल स	-1.0495664
-1.3720864	ि स	-1.5215955
-1.3988216	ी स	-1.2743216
-1.5038146	प स	-0.576644
-1.2882149	ं स	-1.2603226
-1.6458137	व स	-0.6786025
-1.9657356	च स	-0.28939763
-1.7185305	फ स	-0.89397824
-1.9110663	भ स	-0.39327493
-1.5977322	ख स	-0.32791156
-1.5272783	य स	-0.8055404
-1.1256889	अ स	-0.7277878
-1.5962435	त स	-0.38746735
-1.175246	ई स	-0.95089203
-2.1078584	ध स	-0.27987513
-1.3875692	ू स	-0.8099953
-1.678901	थ स	-0.39836556
-1.4032379	ौ स	-0.43933147
-1.5374293	ँ स	-0.40046224
-1.9227599	ष स	-0.28027833
-1.8346907	ठ स	-0.27987513
-1.7481347	ढ स	-0.27987513
-1.7558861	ण स	-0.28939763
-1.8916813	घ स	-0.27987513
-1.7036736	ृ स	-0.4269424
-1.5732723	ह ्	-1.154528
-2.4344738	े ्	-0.27987513
-1.2187788	ड ्	-1.4142728
-1.2408508	म ्	-1.5750808
-2.1693208	ा ्	-0.28004786
-1.187211	स ्	-2.0590715
-1.1443591	ट ्	-1.8361632
-1.3731843	र ्	-1.9374517
-2.137882	इ ्	-0.27987513
-1.0704852	श ्	-1.4050843
-2.4351616	ो ्	-0.27987513
-1.1861955	ब ्	-1.7109187
-2.4087565	ु ्	-0.27987513
-1.2424499	क ्	-1.9780617
-1.3501883	ज ्	-1.0345399
-1.1535451	द ्	-1.656193
-1.2616156	न ्	-1.7935445
-1.8736756	उ ्	-0.27987513
-1.5461243	़ ्	-1.046907
-1.2087444	ग ्	-1.5464039
-1.307151	ल ्	-1.6944534
-2.18449	ी ्	-0.29301652
-1.1741271	प ्	-1.8665366
-2.5094445	ं ्	-0.27987513
-1.3017865	व ्	-1.0843804
-1.1853766	च ्	-0.8533249
-1.0863316	फ ्	-1.5418106
-1.3136125	भ ्	-0.5693662
-1.249471	ख ्	-0.75537133
-1.2123002	य ्	-0.8419635
-1.1196449	त ्	-1.5794001
-1.2598941	ध ्	-1.2433891
-2.257255	ू ्	-0.27987513
-1.2335465	थ ्	-0.9568478
-0.8733311	ष ्	-1.3398297
-1.744291	ठ ्	-0.28027833
-1.5433881	ढ ्	-0.2800767
-0.8416816	ण ्	-1.6318855
-1.4196764	घ ्	-0.28939763
-1.5873734	छ ्	-0.4159439
-1.5879846	<s> ट	-1.5889251
-1.6924664	ह ट	-0.38518286
-1.4270775	े ट	-1.5293951
-2.1329167	ड ट	-0.2801775
-1.8466682	म ट	-0.5935894
-1.5029626	ा ट	-1.1001558
-1.72358	स ट	-0.78046244
-1.3792646	् ट	-1.7687922
-1.807793	ट ट	-0.31851235
-1.7900443	र ट	-0.6595924
-1.3904523	ए ट	-0.7922952
-1.8312467	आ ट	-0.51285386
-1.3840362	इ ट	-1.1020056
-2.215591	श ट	-0.27987513
-1.4662379	ो ट	-1.1889849
-1.7880266	ब ट	-0.46982002
-1.5153874	ु ट	-0.7705382
-1.6043953	क ट	-0.727804
-1.8332785	ज ट	-0.3832931
-1.6620965	न ट	-0.58981514
-1.1742665	उ ट	-0.625866
-1.7171892	़ ट	-0.28819582
-1.8564243	ग ट	-0.57973385
-1.3425478	ै ट	-1.0025777
-1.6153737	ल ट	-0.54693615
-1.5143352	ि ट	-1.3174893
-1.4402821	ी ट	-1.241063
-1.5545782	प ट	-0.7256244
-1.2603527	ं ट	-1.4405106
-1.6841934	व ट	-0.41369498
-1.97544	च ट	-0.4725347
-1.7956121	फ ट	-0.58767164
-1.4988286	भ ट	-0.5481523
-2.1270473	ख ट	-0.28011698
-1.6043283	य ट	-0.63402855
-1.5385941	अ ट	-0.45779574
-2.2618124	त ट	-0.27987513
-1.2544601	ई ट	-0.94513077
-1.3650296	ू ट	-1.1257399
-2.2147949	थ ट	-0.27987513
-1.4067614	ौ ट	-0.31140557
-1.4612257	ँ ट	-0.46688974
-1.939249	ष ट	-0.27987513
-1.8502704	ठ ट	-0.27987513
-1.5287756	घ ट	-0.3391943
-1.7113447	छ ट	-0.27987513
-1.7171531	ृ ट	-0.28048006
-1.3837377	<s> र	-1.6214378
-1.094613	ह र	-1.00233
-1.3583999	े र	-1.3862064
-1.3452456	ड र	-1.0571407
-1.4419466	म र	-1.011503
-1.4279275	ा र	-1.7472193
-1.292573	स र	-1.0760156
-1.1584488	् र	-1.9355348
-1.2225639	ट र	-1.4437908
-1.6221826	र र	-0.7483365
-1.7061167	ए र	-0.81163365
-0.88033104	आ र	-1.239592
-1.4963121	इ र	-0.7368935
-1.4130181	श र	-0.71222717
-1.3444687	ो र	-1.403358
-1.2470179	ब र	-1.1363204
-1.3365753	ु र	-1.3845799
-1.2911615	क र	-1.240231
-1.2620462	ज र	-1.030144
-1.2174621	द र	-0.9421004
-1.3953366	न र	-1.158006
-1.4571887	उ र	-0.5127161
-1.5237758	़ र	-0.8360908
-1.3129306	ग र	-0.9845094
-1.2940252	ै र	-1.0302526
-1.4591898	ल र	-1.1673121
-1.4031254	ि र	-1.2400935
-1.3296108	ी र	-1.0822718
-1.2779602	प र	-1.0213492
-1.7552578	ं र	-0.37389505
-1.1463958	व र	-1.3066031
-1.1434679	च र	-0.9553896
-1.184675	फ र	-0.9122037
-1.3573095	भ र	-0.486526
-1.120852	ख र	-0.64226925
-1.384629	य र	-1.1619071
-0.85852855	अ र	-0.928658
-1.3101664	त र	-0.8392625
-1.7411734	ई र	-0.6117745
-1.0795836	ध र	-0.91064054
-1.2026923	ू र	-1.118445
-1.1744251	थ र	-0.6087412
-1.0424991	ौ र	-0.8980458
-1.4529393	ँ र	-0.35774526
-1.8020325	ष र	-0.38495177
-1.2445302	ठ र	-0.34738955
-1.6014059	ढ र	-0.27987513
-1.9051319	ण र	-0.37219778
-1.014477	घ र	-0.7081145
-1.6972213	छ र	-0.27987513
-1.3545821	<s> ए	-1.6989725
-2.4142003	े ए	-0.46471936
-2.5263312	ड ए	-0.27987513
-2.542013	म ए	-0.91104025
-1.71636	ा ए	-0.5276961
-2.2912433	स ए	-0.9661258
-2.3770075	् ए	-0.27987513
-2.5575078	ट ए	-0.28027833
-2.4630375	र ए	-0.7316986
-1.4033179	ए ए	-0.8629075
-1.9712293	आ ए	-0.27987513
-1.6953223	इ ए	-0.459431
-1.5908703	ो ए	-0.44813216
-2.521292	ब ए	-0.28048006
-1.5794281	ु ए	-0.6546785
-2.649066	क ए	-0.27987513
-2.2874355	न ए	-0.7384994
-1.9183336	उ ए	-0.27987513
-2.1104288	़ ए	-0.41233873
-2.5336235	ल ए	-0.5359958
-1.6186078	ि ए	-0.8217114
-1.7012085	ी ए	-1.4268765
-2.455699	प ए	-0.27987513
-2.450647	ं ए	-0.30200368
-2.5508883	व ए	-0.27987513
-2.375802	च ए	-0.5174738
-2.4000616	फ ए	-0.5877672
-2.449493	य ए	-0.27987513
-1.1874324	ई ए	-1.0829762
-1.972248	ू ए	-0.56061214
-2.1763954	थ ए	-0.28027833
-2.21903	ौ ए	-0.28048006
-1.7686996	ँ ए	-0.27987513
-1.6495142	<s> आ	-1.3621516
-2.0793862	े आ	-0.32232347
-2.5613241	ड आ	-0.27987513
-2.5721433	म आ	-0.83733386
-2.1966045	स आ	-0.8779893
-2.403884	् आ	-0.27987513
-2.2406707	ट आ	-0.28048006
-2.482218	र आ	-0.76125175
-1.407065	ए आ	-1.0631673
-2.0836706	इ आ	-0.4159439
-1.7932901	ो आ	-0.47463667
-2.55813	ब आ	-0.28048006
-1.4192535	ु आ	-0.7315083
-2.5066469	क आ	-0.2963649
-2.414234	न आ	-1.1175508
-1.9460783	उ आ	-0.27987513
-2.1454413	़ आ	-0.27987513
-2.4721696	ै आ	-0.27987513
-2.6273344	ल आ	-0.5676179
-1.5487491	ि आ	-0.886053
-1.6701385	ी आ	-1.5856823
-2.6003227	ं आ	-0.27987513
-2.4100099	च आ	-0.5676179
-2.2996333	फ आ	-0.8855803
-1.3676262	ई आ	-1.2965219
-1.8187312	ू आ	-0.596104
-2.250778	ौ आ	-0.27987513
-1.7919545	ँ आ	-0.27987513
-1.8561828	ढ आ	-0.27987513
-1.6033775	<s> इ	-1.5106244
-1.6149112	े इ	-0.38198614
-2.3286343	ड इ	-0.28011698
-2.527697	म इ	-0.27987513
-1.5620482	ा इ	-1.6689463
-2.4241552	स इ	-0.27987513
-2.474672	् इ	-0.29318264
-2.5892103	र इ	-0.2801775
-2.3101463	ए इ	-0.27987513
-1.2063496	आ इ	-0.729254
-1.5635885	ो इ	-0.6033956
-2.4010167	ब इ	-0.27987513
-1.5776278	ु इ	-0.4851281
-2.5320897	क इ	-0.28027833
-2.524703	ज इ	-0.28048006
-2.5068264	द इ	-0.27987513
-2.1948035	न इ	-0.2800767
-1.9050988	उ इ	-0.28027833
-1.9819969	़ इ	-0.28027833
-2.2036586	ग इ	-0.4157372
-2.3040068	ै इ	-0.27987513
-2.3807197	ल इ	-0.27987513
-2.1809754	ि इ	-0.35795194
-2.0994978	ी इ	-0.28032872
-2.5438495	प इ	-0.27987513
-2.3693562	ं इ	-0.27987513
-2.5337622	व इ	-0.27987513
-2.18958	फ इ	-0.27987513
-2.1162064	भ इ	-0.27987513
-2.4327905	य इ	-0.27987513
-1.8314358	अ इ	-0.27987513
-2.222979	ू इ	-0.2800767
-2.2947598	थ इ	-0.27987513
-2.2039857	ौ इ	-0.27987513
-1.8224751	ढ इ	-0.27987513
-1.693206	<s> श	-1.3749752
-2.1983385	ह श	-0.2801775
-1.4283048	े श	-1.3650345
-2.1397648	ड श	-0.41944024
-1.7773155	म श	-0.60465693
-1.6800079	ा श	-0.8287104
-2.2416441	स श	-0.27987513
-1.5384017	् श	-1.0275505
-1.9932353	ट श	-0.28023797
-1.7219421	र श	-0.6486521
-1.6421523	ए श	-0.75987065
-1.9089171	आ श	-0.5707774
-1.7778149	इ श	-0.3522867
-2.3244894	श श	-0.34738955
-1.665292	ो श	-0.7599688
-2.1520915	ब श	-0.2800767
-1.4931979	ु श	-0.6850279
-1.9317743	क श	-0.61744934
-2.051811	ज श	-0.46413302
-1.8703343	द श	-0.5831758
-1.7970061	न श	-0.4505682
-1.8443735	उ श	-0.27987513
-1.8625394	़ श	-0.2801775
-2.1621575	ग श	-0.29301652
-1.4253463	ै श	-0.7251439
-1.8254865	ल श	-0.33950242
-1.5157043	ि श	-1.1380315
-1.4629893	ी श	-0.8942275
-2.194201	प श	-0.57948947
-1.6117904	ं श	-0.7772913
-2.0765514	व श	-0.4750784
-2.286875	च श	-0.27987513
-2.3136256	फ श	-0.27987513
-2.0287464	ख श	-0.27987513
-1.8799809	य श	-0.44521344
-1.9145997	अ श	-0.68330956
-2.271415	त श	-0.2800767
-2.1062615	ई श	-0.77348614
-1.6725513	ू श	-0.6190821
-2.2271411	थ श	-0.28048006
-1.955622	ौ श	-0.45494902
-1.9506003	ष श	-0.27987513
-1.8609763	ठ श	-0.27987513
-1.9953908	ण श	-0.27987513
-1.4787161	ृ श	-0.2801775
-1.3062994	ह ो	-0.8796059
-1.2504396	ड ो	-1.1117085
-1.3920571	म ो	-1.2540678
-2.6691117	ा ो	-0.27987513
-1.2992114	स ो	-1.0790536
-1.2839037	ट ो	-1.2714276
-1.4376438	र ो	-1.5370117
-1.2737881	श ो	-0.5306119
-2.46754	ो ो	-0.27987513
-1.2401195	ब ो	-1.0128765
-2.5462573	ु ो	-0.27987513
-1.2542952	क ो	-1.4126987
-1.3917482	ज ो	-0.78606373
-1.3619525	द ो	-0.7651496
-1.389455	न ो	-1.2173166
-1.4202743	़ ो	-0.8247522
-1.2910554	ग ो	-1.1190038
-1.3748912	ल ो	-1.269513
-2.605484	ि ो	-0.27987513
-1.2989445	प ो	-1.1249475
-1.4474186	व ो	-0.8316431
-1.4123439	च ो	-0.55714595
-1.1729124	फ ो	-1.114355
-1.4424455	भ ो	-0.44992685
-1.2908435	ख ो	-0.43853566
-1.2861087	य ो	-1.2955743
-1.3363644	त ो	-0.8272223
-1.5660391	ध ो	-0.37778908
-1.2664276	थ ो	-0.5928412
-1.4798603	ष ो	-0.4346676
-1.6770471	ठ ो	-0.28027833
-1.5578399	ढ ो	-0.33112705
-1.3326212	ण ो	-0.7820045
-1.329704	घ ो	-0.48608118
-1.5113837	छ ो	-0.4608762
-1.1773815	<s> ब	-1.7522765
-1.6955388	ह ब	-0.55629027
-1.4468901	े ब	-0.9917551
-1.6365786	ड ब	-0.4576239
-1.6129445	म ब	-0.6242317
-1.5041599	ा ब	-1.1690874
-1.6936513	स ब	-0.6873169
-1.5713391	् ब	-1.2526319
-1.763863	ट ब	-0.3867274
-1.5055368	र ब	-0.86779976
-1.4758153	ए ब	-0.5694709
-1.8394134	आ ब	-0.31641936
-1.5778096	इ ब	-0.7577816
-1.9176202	श ब	-0.5285446
-1.5552812	ो ब	-0.9374226
-2.2822773	ब ब	-0.3356841
-1.4706805	ु ब	-0.75168884
-1.7390461	क ब	-0.6114184
-1.8365993	ज ब	-0.55012375
-1.6259384	द ब	-0.33942533
-1.6636901	न ब	-0.6925954
-1.7143707	उ ब	-0.28004786
-1.6191984	़ ब	-0.5531894
-1.8603574	ग ब	-0.44255576
-1.369351	ै ब	-0.7176002
-1.6380811	ल ब	-0.67905605
-1.47589	ि ब	-0.8751339
-1.5336748	ी ब	-0.987046
-1.9458239	प ब	-0.59404653
-1.2904602	ं ब	-0.82040757
-1.9945575	व ब	-0.29013878
-1.8751901	च ब	-0.2892211
-2.3136256	फ ब	-0.52385247
-2.0287464	ख ब	-0.2801775
-2.0673127	य ब	-0.41297138
-1.7094879	अ ब	-0.61515856
-1.8785431	त ब	-0.35835543
-1.4708198	ई ब	-0.60495734
-1.4183619	ू ब	-0.76115257
-2.114213	थ ब	-0.27987513
-1.5275284	ौ ब	-0.28664166
-1.9506003	ष ब	-0.4269424
-1.771529	ढ ब	-0.27987513
-1.9953908	ण ब	-0.27987513
-1.721022	छ ब	-0.27987513
-1.372501	ह ु	-0.61224294
-1.5174543	ड ु	-0.65904915
-1.4065255	म ु	-1.1154648
-2.6779666	ा ु	-0.27987513
-1.4480078	स ु	-1.0452113
-1.625477	ट ु	-0.5422065
-1.4981797	र ु	-0.9861352
-1.3971361	श ु	-0.59707713
-1.2545962	ब ु	-1.0059091
-1.3845218	क ु	-1.1122237
-1.4131773	ज ु	-0.72731686
-1.3834008	द ु	-0.837219
-1.5334077	न ु	-0.67941725
-1.5601071	़ ु	-0.62543654
-1.3380212	ग ु	-1.0827616
-1.5660422	ल ु	-0.77167636
-2.5079587	ि ु	-0.27987513
-2.4156115	ी ु	-0.27987513
-1.2097311	प ु	-1.3397837
-1.6300206	व ु	-0.67507505
-1.4472293	च ु	-0.57760304
-1.5747763	फ ु	-0.7324115
-1.5220112	भ ु	-0.5138047
-1.4850245	ख ु	-0.5106374
-1.2866936	य ु	-0.96109426
-1.3369286	त ु	-0.9979943
-1.2644991	ध ु	-0.6776981
-1.299038	थ ु	-0.4962321
-1.3839581	ष ु	-0.3745502
-1.6806101	ठ ु	-0.29301652
-1.8279145	ढ ु	-0.28048006
-1.8021984	ण ु	-0.38022023
-1.2504486	घ ु	-0.49018493
-1.3202827	छ ु	-0.28002632
-0.99052435	<s> क	-1.9184496
-1.7413454	ह क	-0.53545475
-1.374714	े क	-1.3450549
-1.4785839	ड क	-0.7065909
-1.5664788	म क	-0.7056081
-1.4709321	ा क	-1.1783676
-1.5141037	स क	-0.76742566
-1.3779567	् क	-1.4199648
-1.4129066	ट क	-0.7244298
-1.5034724	र क	-0.9566152
-1.2881622	ए क	-1.095514
-1.4027073	आ क	-0.4939992
-1.3816087	इ क	-1.0112406
-1.4443784	श क	-0.47664174
-1.4094076	ो क	-1.0248052
-1.6250012	ब क	-0.54166764
-1.3370912	ु क	-1.0461558
-1.766604	क क	-0.33899856
-1.7775644	ज क	-0.41650307
-1.6604444	द क	-0.4862907
-1.492507	न क	-0.7835874
-1.6978835	उ क	-0.39327493
-1.6084775	़ क	-0.56894636
-2.2669744	ग क	-0.28560862
-1.2946056	ै क	-1.0914588
-1.4597092	ल क	-1.0000015
-1.3578374	ि क	-1.64835
-1.4187032	ी क	-1.101714
-1.669147	प क	-0.47542465
-1.2321979	ं क	-1.1776667
-1.7198049	व क	-0.62000597
-1.399997	च क	-0.6355015
-2.1257823	फ क	-0.48551574
-1.5842824	भ क	-0.7358546
-1.5282979	य क	-0.71478957
-1.6954153	अ क	-0.7477712
-1.4795	त क	-0.64114994
-1.5398543	ई क	-0.3933796
-1.6373246	ध क	-0.400585
-1.3398949	ू क	-0.73521197
-1.6806765	थ क	-0.2894859
-1.3123738	ौ क	-0.45046735
-1.5407656	ँ क	-0.33934832
-1.36117	ष क	-0.52348083
-1.461517	ठ क	-0.28004786
-1.7527139	ढ क	-0.27987513
-1.4849396	ण क	-0.28867394
-1.896895	घ क	-0.27987513
-1.4682999	ृ क	-0.43482462
-1.4845512	<s> ज	-1.5275662
-1.9524634	ह ज	-0.68880737
-1.464299	े ज	-1.1711506
-1.9438012	ड ज	-0.2872634
-1.8859949	म ज	-0.6013082
-1.5532333	ा ज	-1.1960759
-1.835778	स ज	-0.48871464
-1.5355766	् ज	-1.1722322
-1.9176322	ट ज	-0.31641936
-1.7193952	र ज	-0.7539203
-1.4725213	ए ज	-0.62613606
-1.8946422	आ ज	-0.5287402
-1.3344649	इ ज	-1.0882062
-2.2103662	श ज	-0.27987513
-1.4655681	ो ज	-1.1270905
-1.8377832	ब ज	-0.43367264
-1.5146098	ु ज	-0.80279595
-2.1013327	क ज	-0.718141
-2.3385632	ज ज	-0.43914458
-2.0187278	द ज	-0.35795194
-1.5784078	न ज	-0.58160543
-1.6260616	उ ज	-0.9163904
-1.5281545	़ ज	-0.82468736
-1.9117368	ग ज	-0.55757105
-1.5228001	ै ज	-0.55553126
-1.7322097	ल ज	-0.561464
-1.4933827	ि ज	-1.3210016
-1.4194114	ी ज	-1.2541926
-1.9394126	प ज	-0.28613365
-1.2325917	ं ज	-1.131435
-1.8090444	व ज	-0.51674336
-2.1713223	च ज	-0.27987513
-2.1300411	फ ज	-0.38165167
-1.9201335	भ ज	-0.29301652
-2.0142655	ख ज	-0.2800767
-1.8731525	य ज	-0.38722152
-1.6988909	अ ज	-0.5530455
-1.8131883	त ज	-0.42294773
-1.2536125	ई ज	-0.63974816
-2.1187527	ध ज	-0.27987513
-1.4157165	ू ज	-0.76380324
-2.208751	थ ज	-0.30200368
-1.3570085	ौ ज	-0.47447506
-1.5441278	ँ ज	-0.27987513
-1.7573419	ढ ज	-0.27987513
-1.7614121	ण ज	-0.59739494
-1.7720666	घ ज	-0.27987513
-1.7126133	ृ ज	-0.29301652
-1.7925174	<s> द	-1.3050374
-1.5278075	ह द	-0.49568433
-1.4258537	े द	-0.8027096
-2.4091747	ड द	-0.27987513
-1.5874715	म द	-0.8734075
-1.5180485	ा द	-1.2631172
-1.7932135	स द	-0.44394872
-1.424175	् द	-1.3824587
-2.2944698	ट द	-0.2801775
-1.6777111	र द	-0.824767
-2.0481563	ए द	-0.27987513
-1.5639428	आ द	-0.5693561
-1.9113498	इ द	-0.2892211
-2.1458278	श द	-0.2801775
-1.5062708	ो द	-0.60898757
-1.6975816	ब द	-0.52367043
-1.4263282	ु द	-0.96715456
-1.924928	क द	-0.39665356
-1.9587414	ज द	-0.2963649
-2.0161357	द द	-0.28011698
-1.7349076	न द	-0.538692
-1.1718506	उ द	-0.57909477
-1.5259596	़ द	-0.3679375
-1.8525264	ग द	-0.4977769
-1.4529486	ै द	-0.7008893
-1.7590563	ल द	-0.6718041
-1.534198	ि द	-0.9339306
-1.613688	ी द	-0.77704424
-1.6071074	प द	-0.6486659
-1.2595134	ं द	-1.2162099
-1.6145787	व द	-0.6578547
-2.1662169	च द	-0.27987513
-2.1257823	फ द	-0.27987513
-1.2546878	भ द	-0.8901018
-1.6870309	ख द	-0.29301652
-1.8021361	य द	-0.40968034
-1.769743	अ द	-0.48695177
-2.2524176	त द	-0.27987513
-1.9686806	ई द	-0.43914458
-1.9907752	ध द	-0.39327493
-1.4731107	ू द	-0.7395276
-2.095318	थ द	-0.27987513
-1.4589525	ौ द	-0.6795817
-1.6864346	ँ द	-0.28027833
-1.7320276	ष द	-0.59620035
-1.7527139	ढ द	-0.27987513
-2.0858488	ण द	-0.2963649
-1.896895	घ द	-0.28048006
-1.2850463	ृ द	-0.44159
-1.5211915	<s> न	-1.4805946
-1.3837838	ह न	-0.80623066
-1.4069579	े न	-1.5188926
-1.4058611	ड न	-0.78161705
-1.4116795	म न	-1.0811484
-1.4411027	ा न	-1.6389322
-1.3885412	स न	-1.1223488
-1.3766527	् न	-1.248143
-1.306665	ट न	-1.0239552
-1.4771603	र न	-1.0236295
-1.1163613	ए न	-1.1406246
-1.3374969	आ न	-0.75010955
-1.0671878	इ न	-1.2021792
-1.3082118	श न	-1.4864217
-1.408233	ो न	-1.3765587
-1.4152771	ब न	-0.8959994
-1.3695052	ु न	-1.0454555
-1.5004807	क न	-1.011553
-1.3092805	ज न	-0.8643396
-1.3946965	द न	-0.75554746
-1.6589267	न न	-0.95434666
-1.2454628	उ न	-0.77641594
-1.3414909	़ न	-0.7893518
-1.3612125	ग न	-0.83888066
-1.2934456	ै न	-1.1230278
-1.4884402	ल न	-0.9080931
-1.4025966	ि न	-1.5062788
-1.3290349	ी न	-1.30598
-1.4597723	प न	-0.7314733
-1.5476584	ं न	-0.58799946
-1.2816865	व न	-0.906639
-1.2873645	च न	-1.060186
-1.6025366	फ न	-0.43360376
-1.4187049	भ न	-0.41220212
-1.3594711	ख न	-0.3615873
-1.2404765	य न	-1.4117243
-1.1808486	अ न	-0.8029977
-1.3856835	त न	-0.7803498
-1.5365932	ई न	-0.5029551
-1.2111613	ध न	-0.547636
-1.2554164	ू न	-1.0834168
-1.3563513	थ न	-0.54249763
-1.1415856	ौ न	-0.5353769
-1.4502118	ँ न	-0.2801775
-1.4498019	ष न	-0.28819582
-1.4572179	ठ न	-0.2801775
-1.7436035	ढ न	-0.27987513
-1.9012777	ण न	-0.40791705
-1.165559	घ न	-0.57189476
-1.4655749	छ न	-0.29100513
-1.549906	ृ न	-0.39327493
-2.102464	<s> उ	-1.1079464
-2.5489085	ह उ	-0.27987513
-2.4851253	े उ	-0.27987513
-1.5902044	ा उ	-1.058688
-2.7161899	स उ	-0.60303366
-2.7538066	र उ	-0.27987513
-2.4210067	ए उ	-0.27987513
-1.1769887	आ उ	-1.023217
-2.2842996	इ उ	-0.27987513
-1.8992449	ो उ	-0.34738955
-2.6312313	ब उ	-0.27987513
-2.6712828	ु उ	-0.27987513
-2.693214	न उ	-0.2963649
-2.6349118	ग उ	-0.27987513
-2.5381234	ै उ	-0.27987513
-2.1289968	ि उ	-0.34721303
-2.4322069	ी उ	-0.2801775
-2.145506	ं उ	-0.2872634
-2.6224353	त उ	-0.27987513
-2.5197735	ू उ	-0.27987513
-1.8359109	ँ उ	-0.27987513
-2.068293	घ उ	-0.27987513
-2.53976	े ़	-0.27987513
-1.1708094	ड ़	-1.1995596
-2.5773106	ा ़	-0.34738955
-2.5616617	स ़	-0.27987513
-2.3534606	् ़	-0.27987513
-2.727154	र ़	-0.2963649
-2.2562075	इ ़	-0.27987513
-2.2692468	श ़	-0.2801775
-2.6646307	ो ़	-0.27987513
-2.3983438	ब ़	-0.29301652
-2.6390734	ु ़	-0.27987513
-1.4030772	क ़	-1.0227128
-1.1525768	ज ़	-1.4802191
-2.7906318	न ़	-0.27987513
-1.4560533	ग ़	-0.68088466
-2.5086234	ै ़	-0.27987513
-2.7790232	ल ़	-0.27987513
-2.6992235	ि ़	-0.30200368
-2.6039314	ी ़	-0.27987513
-1.0078095	फ ़	-1.2889469
-1.038991	ख ़	-0.6927298
-2.391884	य ़	-0.2801775
-2.2234216	थ ़	-0.27987513
-2.0842052	ष ़	-0.27987513
-0.67099595	ढ ़	-1.0957366
-1.4229153	<s> ग	-1.6010509
-1.9469279	ह ग	-0.29314113
-1.52651	े ग	-0.90120685
-1.6311951	ड ग	-0.39081323
-1.7099631	म ग	-0.44007248
-1.485502	ा ग	-1.04717
-1.8778713	स ग	-0.47657278
-1.5337032	् ग	-1.046777
-1.803225	ट ग	-0.32896498
-1.5584917	र ग	-0.769472
-2.0440586	ए ग	-0.72175074
-1.8853798	आ ग	-0.37236392
-1.654894	इ ग	-0.62781525
-2.0070372	श ग	-0.28939763
-1.4449648	ो ग	-1.0882826
-2.0373302	ब ग	-0.36223444
-1.4895157	ु ग	-0.7845782
-2.267805	क ग	-0.46709642
-1.7761118	ज ग	-0.47631782
-1.5220224	द ग	-0.40164465
-1.4341507	न ग	-0.8083739
-1.6938576	उ ग	-0.27987513
-1.8394061	़ ग	-0.44580364
-2.1428053	ग ग	-0.27987513
-1.3927908	ै ग	-0.72858614
-1.6131486	ल ग	-0.58239484
-1.4920821	ि ग	-1.0071176
-1.4590892	ी ग	-0.74177885
-1.9351904	प ग	-0.36505947
-1.1478847	ं ग	-1.549461
-1.8058907	व ग	-0.36290643
-1.8623958	च ग	-0.280205
-1.8748819	फ ग	-0.89842486
-1.6934845	भ ग	-0.70149225
-2.0048733	ख ग	-0.27987513
-1.8002226	य ग	-0.3851058
-1.7656543	अ ग	-0.6530817
-1.7114923	त ग	-0.35731825
-1.5382206	ई ग	-0.28651887
-1.9130034	ध ग	-0.28027833
-1.6187319	ू ग	-0.48097447
-2.0907202	थ ग	-0.28027833
-1.6796386	ौ ग	-0.33302087
-0.9719553	ँ ग	-0.39877433
-1.8020325	ष ग	-0.27987513
-1.8346907	ठ ग	-0.27987513
-1.645019	ण ग	-0.2801775
-1.8916813	घ ग	-0.30200368
-1.6972213	छ ग	-0.27987513
-1.4657344	ृ ग	-0.28819582
-1.6698004	ह ै	-0.82912636
-1.7383692	ड ै	-0.4424098
-1.4086615	म ै	-1.2108634
-1.6793461	स ै	-0.9180306
-2.5175092	् ै	-0.27987513
-1.5979964	ट ै	-0.86893916
-1.7132236	र ै	-1.020629
-1.8664161	श ै	-0.6187609
-1.4519268	ब ै	-0.99506974
-1.5736492	क ै	-1.1835928
-1.6341935	ज ै	-0.734114
-1.9754105	द ै	-0.48695177
-1.7001088	न ै	-0.5403497
-1.5696855	़ ै	-0.48811772
-1.6678244	ग ै	-0.84921396
-1.4847083	ल ै	-1.1577418
-2.552858	ी ै	-0.27987513
-1.4341286	प ै	-1.0572033
-1.6342329	व ै	-0.8370695
-1.9160035	च ै	-0.63713104
-1.4214816	फ ै	-0.80925477
-2.1537614	भ ै	-0.4157372
-2.2467673	ख ै	-0.29301652
-2.4758167	य ै	-0.27987513
-2.0104558	अ ै	-0.27987513
-2.0761187	त ै	-0.43933147
-2.2314866	ध ै	-0.28048006
-2.438503	ू ै	-0.27987513
-1.812331	थ ै	-0.45508766
-2.2147303	ण ै	-0.27987513
-1.5215001	<s> ल	-1.5228882
-1.4359798	ह ल	-0.6330683
-1.3583999	े ल	-1.4075078
-1.428999	ड ल	-0.81262356
-1.4738597	म ल	-0.96719307
-1.4279275	ा ल	-1.4883342
-1.4211228	स ल	-1.0409724
-1.2975422	् ल	-1.5577472
-1.3743435	ट ल	-0.9842625
-1.5298378	र ल	-0.9857233
-1.1374806	ए ल	-1.1399088
-1.6717064	आ ल	-0.4676141
-1.2889977	इ ल	-1.109971
-1.5117077	श ल	-0.61116564
-1.3754536	ो ल	-1.342408
-1.3069563	ब ल	-0.9262211
-1.3700618	ु ल	-1.1753583
-1.3634517	क ल	-1.151315
-1.4246045	ज ल	-0.6408587
-1.5852623	द ल	-0.45729524
-1.4767771	न ल	-0.993119
-1.2468922	उ ल	-0.59306127
-1.4547828	़ ल	-0.5899
-1.3977998	ग ल	-0.93734306
-1.2940252	ै ल	-1.0358868
-1.7876725	ल ल	-0.47398677
-1.3720864	ि ल	-1.401604
-1.362839	ी ल	-1.0431241
-1.4026349	प ल	-0.85237944
-1.8018081	ं ल	-0.28019765
-1.3614112	व ल	-0.92822146
-1.3685799	च ल	-0.5932436
-1.3455274	फ ल	-0.42903537
-1.84354	भ ल	-0.27987513
-1.5252371	ख ल	-0.5096596
-1.4947538	य ल	-1.0096451
-0.91964376	अ ल	-0.9452956
-1.3863156	त ल	-0.68005925
-1.5382206	ई ल	-0.6821238
-2.1078584	ध ल	-0.27987513
-1.2956047	ू ल	-0.9496468
-1.2562656	थ ल	-0.57015216
-1.1422265	ौ ल	-0.67925966
-1.5374293	ँ ल	-0.28027833
-1.7047234	ठ ल	-0.40791705
-1.6014059	ढ ल	-0.27987513
-2.0800188	ण ल	-0.27987513
-1.6875895	घ ल	-0.27987513
-1.2902329	छ ल	-0.2883499
-1.7036736	ृ ल	-0.27987513
-3.863927	<s> ि	-0.2802207
-1.265268	ह ि	-1.0927135
-2.3798985	े ि	-0.27987513
-1.1915971	ड ि	-1.3554401
-1.2925899	म ि	-1.3561774
-2.3554947	ा ि	-0.27987513
-1.2731196	स ि	-1.5179223
-2.443206	् ि	-0.27987513
-1.2536448	ट ि	-1.4487087
-1.4358777	र ि	-1.6579387
-1.1596537	श ि	-1.147014
-2.5371373	ो ि	-0.27987513
-1.2969344	ब ि	-1.1543219
-1.456533	क ि	-1.254502
-1.1967586	ज ि	-1.2151781
-1.3028134	द ि	-0.9931962
-1.3527242	न ि	-1.4700574
-1.879781	उ ि	-0.27987513
-1.4134624	़ ि	-0.95982885
-1.3037704	ग ि	-1.0216312
-1.328322	ल ि	-1.5348916
-2.3818316	ी ि	-0.27987513
-1.4094683	प ि	-1.0801483
-1.1721269	व ि	-1.40148
-1.2482915	च ि	-0.962604
-1.171027	फ ि	-1.1436201
-1.3147476	भ ि	-0.45842677
-1.3722714	ख ि	-0.5161548
-1.7598441	य ि	-0.4686428
-1.2354994	त ि	-1.2060953
-1.2194282	ध ि	-0.6892752
-2.2634022	ू ि	-0.27987513
-1.1560559	थ ि	-0.8313444
-1.3762285	ष ि	-0.6363915
-1.1793557	ठ ि	-0.57177013
-1.5462402	ढ ि	-0.28740007
-1.171702	ण ि	-0.6750071
-1.421428	घ ि	-1.3457692
-1.0789095	छ ि	-0.2847849
-1.3056707	ह ी	-0.87665665
-2.5609305	े ी	-0.27987513
-1.2499946	ड ी	-1.3295974
-1.3522762	म ी	-1.2369047
-2.5055368	ा ी	-0.27987513
-1.2626841	स ी	-1.5594039
-1.2029632	ट ी	-1.4338022
-1.3945597	र ी	-1.6122097
-1.1610422	श ी	-0.89971787
-2.5614822	ो ी	-0.27987513
-1.1878313	ब ी	-1.1408478
-1.3198091	क ी	-1.1675274
-1.137342	ज ी	-1.2807657
-1.1677911	द ी	-1.1567513
-1.291153	न ी	-1.4006419
-1.555396	़ ी	-0.9767594
-1.4270418	ग ी	-0.9814149
-1.3189207	ल ी	-1.4019735
-2.2013173	ी ी	-0.29301652
-1.3593407	प ी	-1.2813244
-1.2336056	व ी	-1.1407703
-1.1875038	च ी	-0.81239283
-1.1541603	फ ी	-0.85295355
-1.3752242	भ ी	-0.6941547
-1.5473455	ख ी	-0.64848727
-1.5781789	य ी	-0.7711224
-1.2835091	त ी	-1.1847419
-1.1836928	ध ी	-0.8754728
-2.386194	ू ी	-0.27987513
-1.2360959	थ ी	-0.83415926
-1.4779195	ष ी	-0.68873847
-1.2632792	ठ ी	-0.9364692
-0.97472715	ढ ी	-0.55424666
-1.0104462	ण ी	-0.88311875
-1.5542259	घ ी	-0.52385247
-1.082269	छ ी	-0.35795194
-1.1730564	<s> प	-1.781995
-1.8709269	ह प	-0.68412346
-1.464299	े प	-1.0128796
-1.7614001	ड प	-0.41487193
-1.5471902	म प	-0.87263
-1.5023651	ा प	-0.972758
-1.5815887	स प	-0.9507456
-1.5355766	् प	-1.2499366
-1.806265	ट प	-0.36689475
-1.5450602	र प	-0.8327906
-1.4290559	ए प	-0.9778367
-1.8272202	आ प	-0.6056676
-1.7688667	इ प	-0.72990614
-1.8260121	श प	-0.36458194
-1.4462432	ो प	-1.0787632
-2.0431635	ब प	-0.2892211
-1.4909848	ु प	-0.7840544
-1.767785	क प	-0.5949694
-1.8316275	ज प	-0.6456689
-2.0187278	द प	-0.52385247
-1.5088283	न प	-0.7626909
-1.4618611	उ प	-0.49300295
-1.7138021	़ प	-0.36331174
-1.6455789	ग प	-0.5346734
-1.3672863	ै प	-0.8138557
-1.5221974	ल प	-0.7751701
-1.4206188	ि प	-1.217749
-1.4194114	ी प	-1.1376909
-2.0064607	प प	-0.31641936
-1.4745146	ं प	-0.84993744
-1.9873399	व प	-0.45494902
-1.7831621	च प	-0.40629512
-2.2944603	फ प	-0.60303366
-1.7995734	ख प	-0.37441358
-1.6920662	य प	-0.6036096
-1.184036	अ प	-0.63868713
-1.5656563	त प	-0.6709403
-1.2536125	ई प	-0.8441023
-1.757232	ध प	-0.6354392
-1.4157165	ू प	-0.6924178
-1.8823264	थ प	-0.28664166
-1.5228814	ौ प	-0.28875628
-1.691144	ँ प	-0.27987513
-1.735518	ष प	-0.27987513
-1.8450148	ठ प	-0.27987513
-1.6492939	ण प	-0.44773728
-1.7065856	छ प	-0.28027833
-1.7126133	ृ प	-0.5485383
-4.222884	<s> ं	-0.28027833
-1.6909384	ह ं	-0.5453973
-1.3916649	े ं	-1.6343801
-1.9438012	ड ं	-0.31483546
-1.5882802	म ं	-0.9625923
-1.4866521	ा ं	-1.364286
-1.558179	स ं	-0.8531066
-1.9176322	ट ं	-0.4725347
-1.7193952	र ं	-0.85331625
-1.4290559	ए ं	-1.0037199
-1.8272202	आ ं	-0.55886734
-1.1506705	इ ं	-1.2476857
-1.4146776	श ं	-0.73574996
-1.3164967	ो ं	-1.854797
-1.5638041	ब ं	-0.8777505
-1.3889878	ु ं	-0.95610315
-1.5602444	क ं	-0.98721105
-1.6511912	ज ं	-0.5594162
-1.6615853	द ं	-0.47997555
-1.7358491	न ं	-1.1074219
-1.701947	उ ं	-1.0805066
-1.848512	़ ं	-0.34025902
-1.4817629	ग ं	-0.92983025
-1.253014	ै ं	-1.3291671
-1.5945032	ल ं	-0.7781551
-1.3583145	ि ं	-1.622204
-1.4194114	ी ं	-0.8345753
-1.670287	प ं	-0.891664
-2.4535627	ं ं	-0.27987513
-1.4822252	व ं	-0.7687607
-1.2212692	च ं	-1.0036076
-2.1300411	फ ं	-0.4540513
-1.5864017	भ ं	-0.6282887
-1.4658072	ख ं	-0.6889452
-1.5646514	य ं	-0.6402745
-1.7738705	अ ं	-0.84340906
-1.5982997	त ं	-0.56602764
-1.6319761	ई ं	-0.35784864
-2.1187527	ध ं	-0.27987513
-1.4157165	ू ं	-0.4475233
-1.5461038	थ ं	-0.4599806
-1.2037175	ौ ं	-0.47254592
-1.9336828	ष ं	-0.27987513
-1.7123538	ठ ं	-0.28027833
-1.9813237	ण ं	-0.27987513
-1.5265342	घ ं	-0.39327493
-1.5595117	छ ं	-0.29100513
-1.1578274	ृ ं	-0.55501187
-1.4006146	<s> व	-1.6730638
-1.6878983	ह व	-0.57948947
-1.3905368	े व	-1.1019374
-1.5958838	ड व	-0.88481313
-1.8827932	म व	-0.51648927
-1.4703772	ा व	-1.2408942
-1.5344311	स व	-0.7525476
-1.2625569	् व	-1.442019
-1.5795099	ट व	-0.71788895
-1.4776452	र व	-1.0075333
-1.7061167	ए व	-0.54653746
-1.6717064	आ व	-0.63084984
-1.7630019	इ व	-0.56905484
-1.8217463	श व	-0.45420235
-1.4642317	ो व	-1.0984279
-1.8919092	ब व	-0.61236644
-1.4063476	ु व	-0.7923912
-1.6252849	क व	-0.7786057
-1.5224758	ज व	-0.7027339
-1.7486233	द व	-0.38534698
-1.4767771	न व	-0.7997534
-1.6938576	उ व	-0.27987513
-1.6058382	़ व	-0.6485475
-1.8004287	ग व	-0.7877894
-1.4521132	ै व	-0.5568668
-1.4591898	ल व	-0.8379516
-1.5122894	ि व	-1.118598
-1.4179963	ी व	-1.0563228
-1.7813699	प व	-0.48645657
-1.5218838	ं व	-0.75525826
-2.0621426	व व	-0.48695177
-1.9657356	च व	-0.28651887
-2.1215646	फ व	-0.28753674
-1.4936501	भ व	-0.4069599
-1.7938203	ख व	-0.2801775
-1.6890997	य व	-0.5188366
-1.7656543	अ व	-0.5400017
-1.5335168	त व	-0.66444635
-1.5382206	ई व	-0.3448293
-1.40296	ध व	-0.43267888
-1.5771816	ू व	-0.47842798
-1.7666363	थ व	-0.5072183
-1.5924133	ौ व	-0.2801775
-1.5374293	ँ व	-0.6889452
-1.7285651	ष व	-0.2801775
-1.3387955	ठ व	-0.39327493
-1.6014059	ढ व	-0.28027833
-1.7558861	ण व	-0.4972196
-1.5220858	घ व	-0.39665356
-1.4683006	छ व	-0.38915384
-1.7193363	<s> च	-1.406155
-2.3709373	ह च	-0.27987513
-1.6368018	े च	-0.51351225
-1.8957441	म च	-0.6997381
-1.6367574	ा च	-0.7586777
-2.1530843	स च	-0.47612017
-1.610313	् च	-0.90306854
-1.8155149	ट च	-0.28017744
-1.795053	र च	-0.41330114
-1.2931998	ए च	-0.8061976
-2.0408256	आ च	-0.2963649
-1.6734513	इ च	-0.33934832
-2.0338638	श च	-0.28039354
-1.7751694	ो च	-0.6225116
-2.29783	ब च	-0.36435595
-1.7379609	ु च	-0.5974996
-2.116903	क च	-0.38165167
-2.4712367	ज च	-0.27987513
-2.4541583	द च	-0.27987513
-1.8002737	न च	-0.36739042
-1.647133	उ च	-0.38781184
-1.9402705	़ च	-0.27987513
-2.3037577	ग च	-0.27987513
-1.5684066	ै च	-0.49431825
-1.9025028	ल च	-0.31282467
-1.5856475	ि च	-0.72165346
-1.654029	ी च	-0.55377436
-1.9523312	प च	-0.2888385
-1.5280645	ं च	-0.77203655
-2.085432	व च	-0.34025902
-2.203284	च च	-0.27987513
-2.0437267	ख च	-0.28027833
-2.0780385	य च	-0.2892211
-1.9321526	अ च	-0.459431
-2.040465	त च	-0.28939763
-2.124741	ई च	-0.27987513
-2.1531785	ध च	-0.28048006
-1.790745	ू च	-0.501627
-2.0393505	ौ च	-0.27987513
-1.5648668	ँ च	-0.2801775
-1.8360025	ष च	-0.2963649
-2.0099287	ण च	-0.27987513
-1.5002692	<s> फ	-1.6578645
-1.8850045	ह फ	-0.35784864
-1.581649	े फ	-0.8210351
-1.8240166	ड फ	-0.35731825
-1.9934307	म फ	-0.38241658
-1.6591274	ा फ	-1.0593339
-1.8916085	स फ	-0.6174075
-1.610313	् फ	-1.105922
-1.8688323	ट फ	-0.42211145
-1.7467707	र फ	-0.6507249
-1.1864586	ए फ	-1.066857
-1.6947179	आ फ	-0.4065492
-1.3901646	इ फ	-0.5681898
-2.3452404	श फ	-0.27987513
-1.6096009	ो फ	-0.9556123
-2.3565192	ब फ	-0.39327493
-1.8809276	ु फ	-0.50448346
-1.9890879	क फ	-0.31678495
-2.0600972	ज फ	-0.39665356
-1.8002737	न फ	-0.6069339
-1.6274165	़ फ	-0.42661682
-2.3037577	ग फ	-0.29090187
-1.5684066	ै फ	-0.55872715
-1.7966099	ल फ	-0.39739156
-1.5392356	ि फ	-0.98682934
-1.5364499	ी फ	-0.85741216
-1.9523312	प फ	-0.28740007
-1.683708	ं फ	-0.59417117
-2.3848836	व फ	-0.280359
-2.203284	च फ	-0.27987513
-2.3336759	फ फ	-0.27987513
-2.0685513	भ फ	-0.27987513
-2.1589675	ख फ	-0.27987513
-2.2185445	य फ	-0.29023403
-1.9321526	अ फ	-0.84659326
-2.3480911	त फ	-0.28048006
-1.9254498	ई फ	-0.35795194
-1.8609133	ू फ	-0.45793724
-2.2463448	थ फ	-0.27987513
-1.9683256	ौ फ	-0.2801775
-1.720526	ँ फ	-0.27987513
-2.1290095	ण फ	-0.27987513
-2.0044174	<s> भ	-1.1054631
-2.4011686	ह भ	-0.28048006
-2.544563	े भ	-0.27987513
-2.3794498	ड भ	-0.27987513
-2.2133358	म भ	-0.34767446
-1.7666566	ा भ	-0.6572396
-2.1660168	स भ	-0.90406364
-1.8630675	् भ	-0.4779603
-2.1308165	र भ	-0.60369
-2.067867	आ भ	-0.27987513
-2.374547	श भ	-0.27987513
-2.1411812	ो भ	-0.2892211
-2.4792457	ब भ	-0.28048006
-1.7863643	ु भ	-0.575063
-2.5119452	क भ	-0.2963649
-2.328922	ज भ	-0.35795194
-2.3746214	द भ	-0.27987513
-2.5136013	न भ	-0.2801775
-1.8859735	उ भ	-0.27987513
-2.070294	़ भ	-0.27987513
-2.1907868	ग भ	-0.46709642
-2.2167397	ै भ	-0.27987513
-2.1810827	ल भ	-0.55053914
-2.086149	ि भ	-0.4540513
-2.0894363	ी भ	-0.28939763
-2.422201	प भ	-0.29100513
-1.587371	ं भ	-0.51058716
-2.3464332	व भ	-0.56524515
-2.0951395	भ भ	-0.30200368
-2.1863081	ख भ	-0.27987513
-2.304389	य भ	-0.51285386
-1.9567177	अ भ	-0.7830458
-2.3719008	त भ	-0.27987513
-2.0638366	ू भ	-0.60303366
-2.0600798	ौ भ	-0.27987513
-1.7412798	ँ भ	-0.30200368
-2.0301018	ण भ	-0.27987513
-1.592272	ृ भ	-0.28027833
-2.1627963	<s> ख	-0.97297525
-2.2863376	ह ख	-0.27987513
-1.979952	े ख	-0.6600441
-2.4711542	ड ख	-0.27987513
-2.3067508	म ख	-0.4015763
-1.7361534	ा ख	-0.6108897
-2.1595023	स ख	-0.4468276
-1.7432592	् ख	-0.38389462
-2.4016645	ट ख	-0.27987513
-1.8235147	र ख	-0.52804303
-1.9338036	आ ख	-0.2872634
-2.0213256	इ ख	-0.27987513
-2.2540383	श ख	-0.27987513
-1.8204955	ो ख	-0.5097488
-2.0673144	ब ख	-0.8154024
-1.945554	ु ख	-0.6248287
-2.590252	क ख	-0.27987513
-2.468566	द ख	-0.280359
-2.6541271	न ख	-0.28048006
-2.055224	़ ख	-0.27987513
-2.314866	ग ख	-0.2801775
-2.2071376	ै ख	-0.27987513
-2.0468369	ल ख	-0.36744726
-1.9498034	ि ख	-0.45779574
-2.18449	ी ख	-0.3852599
-2.5031564	प ख	-0.27987513
-2.0910268	ं ख	-0.4159439
-2.4936876	व ख	-0.27987513
-2.3217435	च ख	-0.27987513
-2.3475761	फ ख	-0.28027833
-2.081642	भ ख	-0.27987513
-2.1724226	ख ख	-0.27987513
-2.3936453	य ख	-0.30200368
-1.9442616	अ ख	-0.28034037
-2.0462077	त ख	-0.28664166
-2.010137	ई ख	-0.27987513
-2.1956546	ू ख	-0.35774526
-2.1685085	ौ ख	-0.27987513
-1.7307789	ँ ख	-0.27987513
-2.142172	ण ख	-0.27987513
-1.9171467	<s> य	-1.2220231
-1.8042812	ह य	-0.59182847
-1.39223	े य	-1.0279807
-1.673155	ड य	-0.46923238
-1.6853702	म य	-0.6043263
-1.4431816	ा य	-1.2794907
-2.0585618	स य	-0.5072532
-1.2013547	् य	-1.5949576
-1.8601118	ट य	-0.43137276
-1.9049555	र य	-0.6888663
-1.7117726	ए य	-0.88479364
-1.5683367	आ य	-0.5016559
-1.335552	इ य	-0.6902789
-1.6438354	श य	-0.36331174
-1.486495	ो य	-0.56781393
-2.1446092	ब य	-0.3745502
-1.8719903	ु य	-0.40311503
-1.9283376	क य	-0.35676453
-1.7334175	ज य	-0.64159256
-1.5881466	द य	-0.6872606
-1.8270609	न य	-0.59671474
-1.6138049	़ य	-0.34738955
-2.27717	ग य	-0.5485383
-1.3679734	ै य	-0.75867593
-1.6821663	ल य	-0.7507753
-1.3445033	ि य	-1.9662108
-1.4008541	ी य	-1.1403327
-1.9415392	प य	-0.41227043
-1.9189292	ं य	-0.44887254
-1.9897324	व य	-0.44588065
-2.114931	च य	-0.35795194
-2.1343422	फ य	-0.2801775
-2.0374537	भ य	-0.27987513
-2.0190392	ख य	-0.27987513
-2.2527258	य य	-0.2801775
-1.7780375	अ य	-0.54835135
-1.9439328	त य	-0.2801775
-1.7490499	ई य	-0.35795194
-2.1243043	ध य	-0.27987513
-1.8488305	ू य	-0.33934832
-2.0147572	ौ य	-0.27987513
-1.5475163	ँ य	-0.27987513
-1.814462	ष य	-0.28011698
-1.6364269	ठ य	-0.27987513
-1.7620196	ढ य	-0.4269424
-1.7642018	ण य	-0.2800767
-1.562507	ृ य	-0.27987513
-1.4080839	<s> अ	-1.6125393
-1.7532153	े अ	-0.72305316
-2.5705314	ड अ	-0.27987513
-2.5800142	म अ	-0.27987513
-2.2039418	ा अ	-0.28027833
-2.5378437	स अ	-0.28027833
-2.4108713	् अ	-0.28027833
-2.48051	ट अ	-0.30200368
-2.7020428	र अ	-0.27987513
-2.2268488	ए अ	-0.47245616
-2.0898087	इ अ	-0.27987513
-2.17411	ो अ	-0.39854208
-1.6134219	ु अ	-0.81167555
-2.5131776	क अ	-0.37219778
-2.585688	ज अ	-0.27987513
-2.5741324	न अ	-0.44412303
-2.5695548	ग अ	-0.27987513
-2.2682195	ै अ	-0.28027833
-2.7476645	ल अ	-0.27987513
-1.6229746	ि अ	-0.6601579
-1.7921433	ी अ	-0.499902
-2.4919982	प अ	-0.27987513
-2.484485	ं अ	-0.27987513
-2.5969138	व अ	-0.27987513
-2.2232053	ई अ	-0.27987513
-2.1048098	ू अ	-0.39327493
-2.349257	थ अ	-0.27987513
-2.1166947	ौ अ	-0.27987513
-1.7235109	<s> त	-1.341555
-1.6023796	ह त	-0.5382681
-1.4845281	े त	-0.83654773
-1.509654	म त	-0.78269726
-1.518668	ा त	-1.1352632
-1.7223967	स त	-0.7925712
-1.4500401	् त	-1.4068828
-2.3560748	ट त	-0.2800767
-1.5450602	र त	-0.9365745
-1.9061697	ए त	-0.2859107
-2.0031805	आ त	-0.68873847
-1.5721422	इ त	-0.46218938
-2.01359	श त	-0.48734754
-1.5293093	ो त	-0.85968065
-1.7404538	ब त	-0.49172562
-1.4685788	ु त	-0.8540893
-1.7058942	क त	-0.5458765
-1.9609551	ज त	-0.3522867
-1.4951053	द त	-0.7169739
-1.7095524	न त	-0.56318223
-1.4618611	उ त	-0.9226234
-1.5281545	़ त	-0.42280167
-1.5838504	ग त	-0.5622794
-1.4537857	ै त	-0.7324158
-1.7322097	ल त	-0.5622794
-1.4041848	ि त	-1.1523664
-1.4828295	ी त	-0.9356574
-1.4038693	प त	-0.90799224
-1.3044708	ं त	-0.9658334
-1.5058213	व त	-1.0339854
-1.9721811	च त	-0.59739494
-1.9870542	फ त	-0.53525645
-1.8512897	भ त	-0.28011698
-1.7995734	ख त	-0.2800767
-1.4378648	य त	-0.74266875
-1.6988909	अ त	-0.4739914
-1.9416548	त त	-0.6732278
-2.088536	ई त	-0.27987513
-1.9199276	ध त	-0.2872634
-1.3892202	ू त	-0.75497633
-2.208751	थ त	-0.27987513
-1.4055837	ौ त	-0.4476326
-1.8102791	ष त	-0.47245616
-1.8450148	ठ त	-0.27987513
-1.9813237	ण त	-0.2963649
-1.9021722	घ त	-0.27987513
-1.7065856	छ त	-0.66261727
-0.9097367	ृ त	-0.80268586
-2.5203872	<s> ई	-0.6913778
-2.089535	ह ई	-0.4269424
-1.7046113	े ई	-0.9752519
-2.486217	ड ई	-0.27987513
-2.4487998	म ई	-0.55982304
-1.5249115	ा ई	-1.3435968
-2.1660168	स ई	-0.5123427
-2.3455944	् ई	-0.27987513
-2.5164952	ट ई	-0.27987513
-2.1899915	र ई	-0.46436408
-2.095984	ए ई	-0.28027833
-0.9765958	आ ई	-1.3055084
-2.1519163	इ ई	-0.27987513
-2.374547	श ई	-0.27987513
-1.6133469	ो ई	-0.81014216
-2.0735679	ब ई	-0.77348614
-1.6679122	ु ई	-0.607464
-2.5119452	क ई	-0.28048006
-2.307043	द ई	-0.30200368
-2.3755565	न ई	-0.36912233
-1.8859735	उ ई	-0.27987513
-1.9636211	़ ई	-0.30200368
-2.3262658	ग ई	-0.2907985
-2.3998644	ै ई	-0.27987513
-2.264528	ल ई	-0.5580664
-2.171561	ि ई	-0.2907985
-1.7757376	ी ई	-0.7880199
-2.518979	प ई	-0.27987513
-2.5246153	ं ई	-0.28048006
-2.0118804	व ई	-0.53940296
-2.2259784	च ई	-0.28027833
-2.361936	फ ई	-0.27987513
-2.4758887	त ई	-0.27987513
-1.7735746	ई ई	-0.4541298
-2.177745	ध ई	-0.27987513
-2.0638366	ू ई	-0.2963649
-1.7412798	ँ ई	-0.28048006
-1.9588016	घ ई	-0.27987513
-2.4198833	<s> ध	-0.94037116
-2.4253085	ह ध	-0.27987513
-2.4024627	े ध	-0.35795194
-2.4667816	म ध	-1.0478292
-1.8336746	ा ध	-0.7675778
-2.2825735	स ध	-0.49713653
-1.9429579	् ध	-0.902663
-2.540635	ट ध	-0.28027833
-2.1975615	र ध	-0.47914892
-1.9602032	आ ध	-0.29100513
-1.930357	ो ध	-0.6618274
-2.3364446	ब ध	-0.27987513
-1.8392035	ु ध	-0.44494444
-2.524703	ज ध	-0.28048006
-2.3926916	द ध	-0.27987513
-2.5943065	न ध	-0.28048006
-1.9050988	उ ध	-0.2801775
-2.0977926	ग ध	-0.35795194
-2.3040068	ै ध	-0.2963649
-2.5214741	ल ध	-0.39327493
-2.021346	ि ध	-0.6409304
-2.0142767	ी ध	-0.44429958
-2.3779874	प ध	-0.29100513
-1.560882	ं ध	-0.77198315
-2.2163723	व ध	-0.2802207
-2.3230724	य ध	-0.27987513
-1.9760988	अ ध	-0.75500274
-2.322897	त ध	-0.30200368
-2.197127	ध ध	-0.27987513
-2.3944864	ू ध	-0.27987513
-2.2947598	थ ध	-0.27987513
-1.9994979	ौ ध	-0.5340432
-1.5903842	ँ ध	-0.52359
-2.0122852	ष ध	-0.27987513
-1.9674709	ण ध	-0.28027833
-1.5470879	ह ू	-0.44040143
-1.6520172	ड ू	-0.43709186
-1.580563	म ू	-0.75865114
-1.5274736	स ू	-0.81862533
-1.514417	ट ू	-0.7396209
-1.5263814	र ू	-1.0173645
-1.7880021	श ू	-0.55004203
-1.4511749	ब ू	-0.72459835
-1.5946634	क ू	-0.651849
-1.6700859	ज ू	-0.5727825
-1.4549431	द ू	-0.6785455
-1.6520638	न ू	-0.767687
-1.567271	़ ू	-0.37234733
-1.6019912	ग ू	-0.621345
-1.4841583	ल ू	-0.7913039
-1.5188555	प ू	-0.8439527
-1.8368183	व ू	-0.31267035
-1.5727024	च ू	-0.49221835
-1.4550353	फ ू	-0.51440823
-1.0513365	भ ू	-0.6612983
-1.7292416	ख ू	-0.29191825
-1.2336051	य ू	-1.3439965
-1.4938443	त ू	-0.5838971
-1.5722634	ध ू	-0.34731278
-1.7139448	थ ू	-0.29789552
-2.0396411	ष ू	-0.27987513
-1.6914777	ठ ू	-0.2801775
-1.6679924	ढ ू	-0.29301652
-2.06783	ण ू	-0.27987513
-1.8447095	घ ू	-0.27987513
-1.5236329	छ ू	-0.28027833
-2.3378832	<s> थ	-0.9993223
-2.3934112	ह थ	-0.2801775
-1.6704564	े थ	-0.48649126
-2.3734975	ड थ	-0.27987513
-2.1280022	म थ	-0.43926916
-1.7959299	ा थ	-0.9889846
-2.400999	स थ	-0.28048006
-1.744776	् थ	-0.9970862
-2.5087378	ट थ	-0.27987513
-1.915463	र थ	-0.5469031
-2.1633804	ए थ	-0.42668533
-1.9389566	आ थ	-0.28011698
-1.7962843	इ थ	-0.50176597
-1.6124074	ो थ	-0.62309754
-1.8863796	ु थ	-0.28391445
-2.055132	क थ	-0.6747485
-2.6620069	न थ	-0.27987513
-1.7403381	उ थ	-0.29191825
-2.0626936	़ थ	-0.27987513
-2.3790443	ग थ	-0.27987513
-1.8572727	ै थ	-0.5254073
-2.4981499	ल थ	-0.27987513
-1.732881	ि थ	-0.6129043
-1.6576939	ी थ	-0.41361266
-1.7552136	प थ	-0.5417913
-1.7265291	ं थ	-0.6166238
-2.501412	व थ	-0.27987513
-2.3290663	च थ	-0.27987513
-2.3546968	फ थ	-0.27987513
-2.2338173	य थ	-0.34738955
-1.8128972	अ थ	-0.49388918
-2.365825	त थ	-0.28048006
-2.0149975	ई थ	-0.28027833
-1.7358296	ू थ	-0.4010958
-2.266437	थ थ	-0.27987513
-1.8213552	ौ थ	-0.27987513
-1.7359977	ँ थ	-0.27987513
-2.1489062	ण थ	-0.2963649
-1.7552886	ृ थ	-0.49713653
-2.129511	ह ौ	-0.4103605
-1.9901466	ड ौ	-0.28002632
-2.1600096	म ौ	-0.71772206
-1.9721745	स ौ	-0.46281767
-2.0350702	ट ौ	-0.2802783
-1.8656689	र ौ	-0.4403237
-2.0852096	श ौ	-0.3851058
-2.221505	ब ौ	-0.5197234
-1.8287864	क ौ	-0.61891955
-2.0077798	ज ौ	-0.39576194
-1.8374004	द ौ	-0.5034463
-1.9708773	न ौ	-0.50668305
-1.9519235	़ ौ	-0.28002632
-1.8953102	ग ौ	-0.63995147
-1.8464946	ल ौ	-0.5140623
-2.5725727	ी ौ	-0.27987513
-2.059028	प ौ	-0.47855574
-2.5969138	व ौ	-0.27987513
-1.9217469	च ौ	-0.54280955
-2.3060043	फ ौ	-0.28740007
-2.023042	भ ौ	-0.280359
-2.3700724	य ौ	-0.2801775
-2.4378502	त ौ	-0.53018826
-2.2460294	ध ौ	-0.59404653
-2.205185	थ ौ	-0.27987513
-2.0613518	ष ौ	-0.27987513
-1.9645272	ठ ौ	-0.280359
-1.8133584	छ ौ	-0.28027833
-2.4894514	ह ँ	-0.27987513
-2.8792932	म ँ	-0.2963649
-1.5773859	ा ँ	-0.7803181
-2.229455	ए ँ	-0.29301652
-2.100321	आ ँ	-0.28651887
-2.8148777	ो ँ	-0.27987513
-2.7479637	ब ँ	-0.2801775
-2.5198367	ु ँ	-0.27987513
-2.8814278	क ँ	-0.27987513
-2.847408	ि ँ	-0.27987513
-2.4126053	ख ँ	-0.27987513
-2.153063	अ ँ	-0.27987513
-1.7864351	ू ँ	-0.49076164
-3.6348712	<s> ष	-0.3657001
-2.087721	े ष	-0.42335027
-2.7109156	म ष	-0.27987513
-2.0158176	ा ष	-0.84049577
-2.0593498	् ष	-0.84795463
-2.622329	ट ष	-0.27987513
-2.7186213	र ष	-0.280359
-2.383788	ए ष	-0.28048006
-2.1608496	आ ष	-0.2932658
-2.2472332	इ ष	-0.27987513
-2.4766064	श ष	-0.27987513
-2.012919	ो ष	-0.49186003
-1.9108293	ु ष	-0.6585498
-2.7171113	क ष	-0.27987513
-1.8025701	उ ष	-0.28048006
-2.3610034	ै ष	-0.7681264
-1.7136358	ि ष	-0.9606743
-2.2464802	ी ष	-0.40263087
-2.6283507	प ष	-0.27987513
-2.6167824	व ष	-0.30200368
-2.437559	च ष	-0.27987513
-2.0400434	अ ष	-0.5942958
-1.9949994	ू ष	-0.3704462
-2.2762115	ौ ष	-0.4269424
-2.076453	ष ष	-0.52385247
-0.92566824	ृ ष	-1.132498
-3.10194	<s> ठ	-0.52083236
-2.5171058	ह ठ	-0.27987513
-2.183375	े ठ	-0.2863961
-2.5327444	म ठ	-0.4269424
-2.213046	ा ठ	-0.5146723
-1.9676279	् ठ	-0.7734862
-2.6569505	र ठ	-0.60303366
-2.1695771	आ ठ	-0.27987513
-2.4863012	श ठ	-0.27987513
-2.302661	ो ठ	-0.2801775
-2.598385	ब ठ	-0.27987513
-2.6390734	ु ठ	-0.27987513
-2.6069098	क ठ	-0.27987513
-2.614696	ज ठ	-0.30200368
-2.7906318	न ठ	-0.27987513
-2.601005	ग ठ	-0.27987513
-2.3678238	ै ठ	-0.2801775
-2.1206343	ि ठ	-0.33934832
-2.410843	ी ठ	-0.4691078
-2.5153294	प ठ	-0.60303366
-2.1359382	ं ठ	-0.3644689
-2.0477662	अ ठ	-0.27987513
-2.4874892	ू ठ	-0.27987513
-1.9856699	ठ ठ	-0.27987513
-1.8319054	छ ठ	-0.27987513
-2.9930477	<s> ढ	-0.51721996
-2.4921865	े ढ	-0.27987513
-2.639508	म ढ	-0.28027833
-2.0256658	ा ढ	-0.7154942
-1.898385	् ढ	-0.2801775
-2.1031702	ो ढ	-0.28819582
-2.6427562	ब ढ	-0.28048006
-2.5432882	ु ढ	-0.37219778
-2.7732005	क ढ	-0.2963649
-1.4381073	ग ढ	-1.2343055
-2.693244	ल ढ	-0.28048006
-2.7432294	ि ढ	-0.27987513
-2.2709544	ी ढ	-0.28027833
-2.6835365	प ढ	-0.28048006
-2.2745562	ं ढ	-0.28027833
-2.6708367	व ढ	-0.27987513
-2.4877536	च ढ	-0.28048006
-2.5659728	य ढ	-0.27987513
-2.3101346	ू ढ	-0.29301652
-2.3222196	ौ ढ	-0.27987513
-1.84257	ँ ढ	-0.27987513
-4.3249807	<s> ण	-0.27987513
-2.223591	ह ण	-0.47245616
-1.8193024	े ण	-1.1385884
-2.4711542	ड ण	-0.27987513
-1.640918	म ण	-0.8546636
-1.5772438	ा ण	-1.0325326
-2.0175343	् ण	-0.7581672
-2.0906656	ट ण	-0.43939382
-1.6290028	र ण	-0.86208534
-1.9305955	ए ण	-1.1259124
-2.0541358	आ ण	-0.27987513
-2.0213256	इ ण	-1.1471018
-2.0408375	श ण	-0.2963649
-1.8677173	ो ण	-0.57948947
-2.308517	ब ण	-0.27987513
-1.945554	ु ण	-0.7587108
-1.8936099	क ण	-0.6712487
-2.468566	द ण	-0.4269424
-2.6541271	न ण	-0.27987513
-1.7359009	उ ण	-1.0165242
-1.8703489	ग ण	-0.5926258
-1.6633282	ै ण	-1.5203798
-2.5504713	ल ण	-0.28048006
-1.8063842	ि ण	-0.7114682
-2.3753796	ी ण	-0.35676453
-2.2137036	प ण	-0.5186181
-2.0910268	ं ण	-0.37219778
-1.9360874	व ण	-0.59294826
-2.2144828	च ण	-0.60303366
-2.3475761	फ ण	-0.4269424
-1.8837504	भ ण	-0.37219778
-1.6163177	ख ण	-0.77348614
-2.2286665	य ण	-0.7665189
-1.9442616	अ ण	-0.3475661
-2.2963936	त ण	-0.28027833
-1.9506292	ू ण	-0.4159439
-1.9770061	ौ ण	-0.30200368
-1.2301387	ष ण	-0.82433426
-1.9468695	घ ण	-0.27987513
-1.585479	ृ ण	-0.39327493
-2.8432484	<s> घ	-0.59791136
-2.4971285	ह घ	-0.27987513
-2.451445	े घ	-0.41803834
-2.7003095	म घ	-0.27987513
-1.880684	ा घ	-0.5974735
-2.6615348	स घ	-0.2963649
-2.175777	् घ	-0.81964815
-2.1005845	र घ	-0.97400653
-2.2384408	इ घ	-0.27987513
-2.4671233	श घ	-0.27987513
-2.6439617	ो घ	-0.27987513
-2.5777915	ब घ	-0.27987513
-2.2599287	ु घ	-0.28004786
-2.4670055	ज घ	-0.27987513
-2.769756	न घ	-0.27987513
-2.5797873	ग घ	-0.27987513
-2.5722544	ल घ	-0.28939763
-2.2071264	ि घ	-0.2800767
-2.0371773	ी घ	-0.4264985
-2.499637	प घ	-0.27987513
-1.6291153	ं घ	-0.5380771
-2.4849732	व घ	-0.28048006
-2.4281805	च घ	-0.28048006
-2.5038395	य घ	-0.27987513
-2.0324554	अ घ	-0.60303366
-2.0780075	ई घ	-0.27987513
-2.2534876	ध घ	-0.27987513
-2.724757	<s> छ	-0.69156486
-2.667732	म छ	-0.28011698
-2.4555976	ा छ	-0.2802207
-2.7654784	स छ	-0.27987513
-2.3989644	् छ	-0.4599806
-2.710621	ट छ	-0.27987513
-2.7115607	र छ	-0.28027833
-2.7458665	ो छ	-0.27987513
-2.718319	ु छ	-0.27987513
-2.810697	क छ	-0.30200368
-2.6846778	ग छ	-0.27987513
-2.862418	ल छ	-0.27987513
-2.6318245	ि छ	-0.27987513
-2.4724705	ं छ	-0.39327493
-2.1060522	अ छ	-0.27987513
-2.5669293	ू छ	-0.27987513
-1.8631827	ँ छ	-0.27987513
-2.321638	ण छ	-0.27987513
-2.0452735	ह ृ	-0.54828906
-2.6752567	ड ृ	-0.27987513
-2.2876265	म ृ	-0.8855803
-2.710621	ट ृ	-0.28027833
-2.9277496	र ृ	-0.30200368
-2.560999	श ृ	-0.60303366
-2.6792881	ब ृ	-0.486526
-1.77001	क ृ	-1.3070889
-2.6910245	ज ृ	-0.27987513
-2.2349904	द ृ	-0.39327493
-2.8727849	न ृ	-0.37219778
-2.25945	़ ृ	-0.27987513
-2.160069	ग ृ	-0.54828906
-2.4903474	प ृ	-0.59404653
-2.0655591	व ृ	-0.46117067
-2.08537	भ ृ	-0.27987513
-2.1149633	त ृ	-0.35408127
-2.3270898	ध ृ	-0.2963649

\3-grams:
-1.1035706	ह ह </s>
-0.86878836	े ह </s>
-2.0734491	म ह </s>
-0.6646011	ा ह </s>
-1.84384	् ह </s>
-1.1330978	ट ह </s>
-1.2039838	र ह </s>
-0.8492025	आ ह </s>
-1.1557341	ो ह </s>
-1.1651869	ु ह </s>
-1.0252701	द ह </s>
-1.6896908	न ह </s>
-1.5568068	ल ह </s>
-1.7691646	ि ह </s>
-0.9865971	ी ह </s>
-0.3561561	ं ह </s>
-1.449997	व ह </s>
-0.762598	त ह </s>
-0.3664114	ू ह </s>
-1.2948295	ौ ह </s>
-0.29969752	ँ ह </s>
-0.6436036	ृ ह </s>
-1.441515	ह े </s>
-0.99309623	ड े </s>
-1.6408715	म े </s>
-0.5773742	ा े </s>
-1.1436242	स े </s>
-1.4062597	ट े </s>
-1.1079513	र े </s>
-1.2947267	श े </s>
-0.7317772	ो े </s>
-1.1468668	ब े </s>
-1.0536603	क े </s>
-1.3020535	ज े </s>
-1.2253914	द े </s>
-0.9600316	न े </s>
-0.6801336	़ े </s>
-0.9230448	ग े </s>
-0.29917285	ै े </s>
-0.91109324	ल े </s>
-0.7317772	ी े </s>
-1.5109113	प े </s>
-1.063437	व े </s>
-1.201446	च े </s>
-1.4957033	फ े </s>
-1.0918093	ख े </s>
-0.90865725	य े </s>
-0.6633532	त े </s>
-0.74965316	ध े </s>
-1.4683304	थ े </s>
-0.61893904	ठ े </s>
-0.75293744	ढ े </s>
-0.38451305	ण े </s>
-0.5988847	घ े </s>
-0.91613334	छ े </s>
-1.459081	ह ड </s>
-0.44892132	े ड </s>
-0.8689209	ा ड </s>
-1.3829273	स ड </s>
-0.37111092	् ड </s>
-0.82606864	ट ड </s>
-1.3842235	र ड </s>
-0.35709554	इ ड </s>
-0.689133	ो ड </s>
-1.5999118	ब ड </s>
-0.7515451	ु ड </s>
-1.2815458	क ड </s>
-0.79905593	ज ड </s>
-1.0170732	न ड </s>
-1.1767043	उ ड </s>
-0.55422926	़ ड </s>
-1.3384529	ग ड </s>
-0.54231656	ै ड </s>
-1.5161582	ल ड </s>
-0.55409396	ि ड </s>
-1.0434031	ी ड </s>
-0.65630746	ं ड </s>
-0.9383588	व ड </s>
-1.1929266	ख ड </s>
-0.4946205	य ड </s>
-1.1389041	अ ड </s>
-0.90233505	ई ड </s>
-0.7053546	ू ड </s>
-0.46694773	थ ड </s>
-1.1145215	ौ ड </s>
-1.0663873	ँ ड </s>
-0.294047	ण ड </s>
-0.742964	ह म </s>
-0.7871755	े म </s>
-0.48943532	ड म </s>
-0.6500338	म म </s>
-0.631594	ा म </s>
-1.1384802	स म </s>
-0.8059291	् म </s>
-0.47999525	ट म </s>
-0.5786754	र म </s>
-0.72703433	ए म </s>
-1.2398466	आ म </s>
-0.71717596	इ म </s>
-0.88732475	श म </s>
-0.8342902	ो म </s>
-0.5666503	ब म </s>
-1.0077497	ु म </s>
-1.1247119	क म </s>
-1.3811147	ज म </s>
-0.95985395	द म </s>
-0.563293	न म </s>
-1.240205	उ म </s>
-0.5979639	़ म </s>
-0.4884767	ग म </s>
-0.94825125	ै म </s>
-0.41914904	ल म </s>
-0.82462406	ि म </s>
-0.67868	ी म </s>
-0.698562	प म </s>
-0.514507	ं म </s>
-1.0309753	व म </s>
-0.5709028	फ म </s>
-1.0087863	ख म </s>
-0.10396528	य म </s>
-1.5116786	अ म </s>
-0.6870414	त म </s>
-0.9739299	ई म </s>
-1.0955523	ध म </s>
-0.48857984	ू म </s>
-0.41092712	थ म </s>
-0.8539394	ौ म </s>
-0.29575047	ँ म </s>
-0.75460476	ष म </s>
-1.1066687	ठ म </s>
-0.27519196	ढ म </s>
-1.1974403	ण म </s>
-0.31501243	घ म </s>
-1.350597	ह ा </s>
-0.5260409	ड ा </s>
-0.75410134	म ा </s>
-0.8207127	स ा </s>
-0.6462524	ट ा </s>
-0.73144436	र ा </s>
-0.94775426	श ा </s>
-1.0289418	ब ा </s>
-0.7535268	क ा </s>
-0.74557275	ज ा </s>
-0.6331772	द ा </s>
-0.5299413	न ा </s>
-0.5196445	़ ा </s>
-0.79110295	ग ा </s>
-0.3046448	ै ा </s>
-0.5659828	ल ा </s>
-0.5878172	ि ा </s>
-0.49367714	ी ा </s>
-1.0182477	प ा </s>
-0.9322797	व ा </s>
-1.0976291	च ा </s>
-1.2903168	फ ा </s>
-0.9906018	भ ा </s>
-0.6895226	ख ा </s>
-0.3097976	य ा </s>
-0.55409706	त ा </s>
-0.74362326	ध ा </s>
-0.8250035	थ ा </s>
-0.29239866	ष ा </s>
-0.47024184	ठ ा </s>
-0.92360413	ढ ा </s>
-0.4209944	ण ा </s>
-0.5905036	घ ा </s>
-0.8329613	छ ा </s>
-1.5303196	ह स </s>
-0.6105206	े स </s>
-0.47784358	ड स </s>
-0.70177895	म स </s>
-0.575899	ा स </s>
-0.5837584	स स </s>
-0.2436387	् स </s>
-0.29801798	ट स </s>
-0.70036286	र स </s>
-0.55979645	ए स </s>
-1.5455238	आ स </s>
-0.86113405	इ स </s>
-0.36806133	श स </s>
-0.8087454	ो स </s>
-0.6354535	ब स </s>
-1.0096581	ु स </s>
-0.3381086	क स </s>
-1.1796459	ज स </s>
-0.9485154	द स </s>
-0.69206566	न स </s>
-0.5870584	उ स </s>
-1.3798497	़ स </s>
-0.5884377	ग स </s>
-0.9061067	ै स </s>
-0.5995368	ल स </s>
-0.5621216	ि स </s>
-0.7758571	ी स </s>
-0.4869297	प स </s>
-0.48414338	ं स </s>
-1.0033878	व स </s>
-1.0064799	च स </s>
-1.37896	फ स </s>
-0.32626802	य स </s>
-1.0502772	अ स </s>
-1.1790153	त स </s>
-1.1781747	ई स </s>
-0.6713815	ू स </s>
-0.38392866	थ स </s>
-0.833197	ौ स </s>
-0.4316216	ँ स </s>
-0.4578122	ष स </s>
-1.764107	ह ् </s>
-2.000986	ड ् </s>
-0.94554436	म ् </s>
-1.0153334	ा ् </s>
-1.9915527	स ् </s>
-1.9166461	ट ् </s>
-2.2858	र ् </s>
-2.3339975	श ् </s>
-2.8032086	ब ् </s>
-2.6831408	क ् </s>
-1.5900145	ज ् </s>
-1.8866986	द ् </s>
-1.7602994	न ् </s>
-2.2352955	ग ् </s>
-2.1400948	ल ् </s>
-0.48346955	ी ् </s>
-2.9904933	प ् </s>
-2.0219758	व ् </s>
-1.3335272	भ ् </s>
-0.9775417	य ् </s>
-2.022745	त ् </s>
-0.9076739	ू ् </s>
-1.9271235	थ ् </s>
-2.3741174	ष ् </s>
-0.9672219	ढ ् </s>
-2.6248426	ण ् </s>
-0.60107005	ह ट </s>
-0.44116974	े ट </s>
-0.76811635	म ट </s>
-0.6344351	ा ट </s>
-1.7004251	स ट </s>
-0.69489634	् ट </s>
-1.2398709	ट ट </s>
-1.0193429	र ट </s>
-0.85062927	ए ट </s>
-0.44918782	इ ट </s>
-0.8058501	ो ट </s>
-1.0436285	ब ट </s>
-0.5990443	ु ट </s>
-0.7668692	क ट </s>
-0.83946866	ज ट </s>
-0.8566885	न ट </s>
-0.44198418	उ ट </s>
-0.658212	़ ट </s>
-1.2091055	ग ट </s>
-0.61416686	ै ट </s>
-0.91599447	ल ट </s>
-0.81651914	ि ट </s>
-1.0010653	ी ट </s>
-1.382986	प ट </s>
-0.4154775	ं ट </s>
-0.70124215	व ट </s>
-1.4013361	फ ट </s>
-1.2666276	भ ट </s>
-0.4750565	य ट </s>
-1.4216801	अ ट </s>
-0.81390333	ई ट </s>
-0.5350054	ू ट </s>
-1.16642	ौ ट </s>
-0.2828129	ँ ट </s>
-1.0913944	घ ट </s>
-0.8983785	ह र </s>
-0.9438289	े र </s>
-0.29763746	ड र </s>
-0.6913984	म र </s>
-0.7361343	ा र </s>
-0.5557133	स र </s>
-1.2123082	् र </s>
-0.2937277	ट र </s>
-0.4323241	र र </s>
-1.370276	ए र </s>
-0.7202978	आ र </s>
-1.6750036	इ र </s>
-0.65418506	श र </s>
-0.81493115	ो र </s>
-0.6357248	ब र </s>
-0.5164656	ु र </s>
-0.45311576	क र </s>
-0.45126218	ज र </s>
-0.50855374	द र </s>
-0.4873952	न र </s>
-1.3427918	उ र </s>
-0.48321655	़ र </s>
-0.35705435	ग र </s>
-1.5112617	ै र </s>
-0.22478943	ल र </s>
-0.9851849	ि र </s>
-0.5570121	ी र </s>
-0.84267914	प र </s>
-0.54704815	ं र </s>
-0.5240682	व र </s>
-0.33652288	च र </s>
-0.6326318	फ र </s>
-0.7139914	भ र </s>
-0.53339607	ख र </s>
-0.29408583	य र </s>
-0.848344	अ र </s>
-0.60035735	त र </s>
-1.2147738	ई र </s>
-0.63140213	ध र </s>
-0.543267	ू र </s>
-0.7321858	थ र </s>
-0.5208672	ौ र </s>
-1.0583174	ँ र </s>
-0.43330464	ष र </s>
-1.100049	ठ र </s>
-1.0083116	ण र </s>
-0.42683986	घ र </s>
-1.1761262	म ए </s>
-0.59273386	ा ए </s>
-1.0271508	स ए </s>
-0.85382617	र ए </s>
-1.7053108	ए ए </s>
-1.3523376	इ ए </s>
-1.3719324	ो ए </s>
-1.4468331	ु ए </s>
-1.211142	न ए </s>
-0.9798602	़ ए </s>
-1.3948001	ल ए </s>
-1.2489632	ि ए </s>
-0.9950322	ी ए </s>
-0.56535316	प ए </s>
-0.27251363	ं ए </s>
-1.0385622	च ए </s>
-1.1799376	फ ए </s>
-1.2987728	ई ए </s>
-1.4390327	ू ए </s>
-1.6510236	स आ </s>
-1.6263313	र आ </s>
-1.878953	ए आ </s>
-0.41786432	ो आ </s>
-0.46143365	ु आ </s>
-0.29624048	ै आ </s>
-0.21584289	ि आ </s>
-2.4891608	ी आ </s>
-0.5769899	ू आ </s>
-0.29624048	ौ आ </s>
-0.93873143	े इ </s>
-0.6629818	ड इ </s>
-1.8910242	ा इ </s>
-0.8982704	् इ </s>
-0.9569444	आ इ </s>
-1.2673836	ो इ </s>
-1.2858069	ु इ </s>
-0.9740948	न इ </s>
-0.8364042	ल इ </s>
-0.8359441	ी इ </s>
-0.97404355	ं इ </s>
-0.84801555	े श </s>
-1.4717249	म श </s>
-0.82492864	ा श </s>
-0.9586286	् श </s>
-1.511965	र श </s>
-1.0575829	इ श </s>
-0.7266659	ो श </s>
-0.9443425	ु श </s>
-1.5788933	द श </s>
-0.83189225	़ श </s>
-1.1238912	ग श </s>
-0.46064448	ै श </s>
-0.6585683	ल श </s>
-0.6590768	ि श </s>
-0.6486744	ी श </s>
-0.53860414	ं श </s>
-1.3358942	व श </s>
-1.2788048	ू श </s>
-1.3559067	ौ श </s>
-0.57504	ण श </s>
-0.83189225	ृ श </s>
-1.1644121	ह ो </s>
-0.72366047	ड ो </s>
-1.287933	म ो </s>
-0.3020812	ा ो </s>
-1.1795242	स ो </s>
-0.9584801	ट ो </s>
-1.0325115	र ो </s>
-1.5929147	श ो </s>
-1.1705737	ब ो </s>
-0.96799016	क ो </s>
-0.9647396	ज ो </s>
-0.8904003	द ो </s>
-0.8344878	न ो </s>
-0.9459762	़ ो </s>
-0.9303198	ग ो </s>
-0.97317076	ल ो </s>
-1.4227296	प ो </s>
-0.865076	व ो </s>
-1.1720978	च ो </s>
-1.3259128	फ ो </s>
-1.4730289	भ ो </s>
-1.4586656	ख ो </s>
-0.8979138	य ो </s>
-0.74404347	त ो </s>
-1.2660152	ध ो </s>
-0.8938625	थ ो </s>
-0.73975027	ठ ो </s>
-0.9565846	ण ो </s>
-1.4170723	छ ो </s>
-0.5398394	ह ब </s>
-0.996734	े ब </s>
-0.87960625	ा ब </s>
-1.851417	स ब </s>
-1.5073785	् ब </s>
-1.3979876	ट ब </s>
-1.3274884	र ब </s>
-1.1585566	ए ब </s>
-1.110436	आ ब </s>
-1.6844213	इ ब </s>
-1.1068977	ो ब </s>
-1.0638726	ु ब </s>
-1.5300887	क ब </s>
-1.4039335	ज ब </s>
-1.3027626	द ब </s>
-1.5716895	़ ब </s>
-0.63812494	ै ब </s>
-1.5435346	ल ब </s>
-1.0778581	ि ब </s>
-1.3954082	ी ब </s>
-1.452829	ं ब </s>
-0.9211908	य ब </s>
-1.1549735	त ब </s>
-1.306545	ई ब </s>
-0.6061901	ू ब </s>
-0.5777863	थ ब </s>
-0.29938996	ढ ब </s>
-0.7323653	ण ब </s>
-1.0478636	ह ु </s>
-0.87274945	ड ु </s>
-1.7106779	म ु </s>
-1.3882933	स ु </s>
-0.72730494	ट ु </s>
-0.97263813	र ु </s>
-0.8928664	श ु </s>
-1.4868716	ब ु </s>
-1.6315423	क ु </s>
-1.415828	ज ु </s>
-1.0045944	द ु </s>
-1.057215	न ु </s>
-1.5859045	ग ु </s>
-0.88859254	ल ु </s>
-0.5806997	ी ु </s>
-2.1158247	प ु </s>
-1.5672168	व ु </s>
-1.6021518	च ु </s>
-1.015401	भ ु </s>
-1.5795461	ख ु </s>
-1.2491828	य ु </s>
-0.90927017	त ु </s>
-0.5304657	ध ु </s>
-1.4445815	थ ु </s>
-0.47024024	ष ु </s>
-0.520903	ण ु </s>
-1.4627299	घ ु </s>
-0.84158653	छ ु </s>
-1.4763002	ह क </s>
-0.79817456	े क </s>
-0.8864864	ड क </s>
-1.0144819	म क </s>
-0.79381573	ा क </s>
-1.2243036	स क </s>
-0.9335613	् क </s>
-0.6743881	ट क </s>
-1.0673572	र क </s>
-2.1088269	ए क </s>
-1.3204623	आ क </s>
-0.9521737	इ क </s>
-1.4034122	श क </s>
-0.849007	ो क </s>
-1.0974821	ब क </s>
-0.9366246	ु क </s>
-1.3555614	क क </s>
-0.79117733	ज क </s>
-0.96565336	द क </s>
-1.0056579	न क </s>
-1.2995298	़ क </s>
-0.8228494	ै क </s>
-1.0299468	ल क </s>
-0.41693866	ि क </s>
-0.9209676	ी क </s>
-0.76448166	प क </s>
-0.83962	ं क </s>
-0.52623403	व क </s>
-1.0330528	च क </s>
-0.5404829	य क </s>
-1.8368781	अ क </s>
-0.70153606	त क </s>
-1.1372654	ई क </s>
-0.4331779	ध क </s>
-0.8089292	ू क </s>
-0.8654051	थ क </s>
-0.86403847	ौ क </s>
-0.51718444	ँ क </s>
-0.2527152	ष क </s>
-0.78115153	ठ क </s>
-0.2970203	ढ क </s>
-0.8886487	ण क </s>
-0.9697281	ृ क </s>
-1.6397833	ह ज </s>
-0.4712618	े ज </s>
-0.76480055	ा ज </s>
-1.4505806	स ज </s>
-1.01757	् ज </s>
-0.94821894	ट ज </s>
-1.1568087	र ज </s>
-1.5318475	ए ज </s>
-1.0096523	इ ज </s>
-0.7211353	श ज </s>
-0.81102395	ो ज </s>
-1.3845851	ब ज </s>
-1.2128457	ु ज </s>
-1.65536	क ज </s>
-1.5129601	न ज </s>
-1.8868548	उ ज </s>
-1.6083066	ग ज </s>
-1.2326436	ै ज </s>
-1.3874816	ल ज </s>
-0.94795495	ि ज </s>
-0.5752734	ी ज </s>
-1.128232	प ज </s>
-0.7066798	ं ज </s>
-1.3177643	व ज </s>
-0.5698892	च ज </s>
-1.0161598	य ज </s>
-1.1926327	त ज </s>
-1.3514156	ई ज </s>
-0.5723241	ू ज </s>
-0.363069	ौ ज </s>
-0.8225738	ँ ज </s>
-0.47961032	ृ ज </s>
-0.9852549	ह द </s>
-0.56406844	े द </s>
-0.8411297	म द </s>
-0.38606656	ा द </s>
-0.9666276	स द </s>
-0.8069097	् द </s>
-1.2391751	र द </s>
-1.541175	आ द </s>
-1.1796815	इ द </s>
-0.8192322	श द </s>
-0.7984217	ो द </s>
-1.0445209	ब द </s>
-1.4525754	ु द </s>
-0.6584051	ज द </s>
-0.83672357	न द </s>
-1.1632632	उ द </s>
-0.9571467	़ द </s>
-1.1218103	ग द </s>
-0.93437964	ै द </s>
-0.9539933	ि द </s>
-0.50963545	ी द </s>
-0.83896554	प द </s>
-0.7271508	ं द </s>
-0.891345	व द </s>
-0.5679817	च द </s>
-0.9672391	य द </s>
-0.28127417	ई द </s>
-0.7301339	ू द </s>
-1.1874801	ौ द </s>
-0.71795213	ँ द </s>
-0.5751129	ष द </s>
-0.35998297	ह न </s>
-0.63455456	े न </s>
-0.16877468	ड न </s>
-0.43161082	म न </s>
-0.46162975	ा न </s>
-0.18204963	स न </s>
-0.925083	् न </s>
-0.20012584	ट न </s>
-0.6323648	र न </s>
-1.1544616	ए न </s>
-0.540228	आ न </s>
-0.6367202	इ न </s>
-0.12339355	श न </s>
-0.5796795	ो न </s>
-0.6823752	ब न </s>
-0.7883727	ु न </s>
-0.65775806	क न </s>
-0.32923338	ज न </s>
-0.29742795	द न </s>
-0.75205743	न न </s>
-0.8034875	उ न </s>
-0.29326448	़ न </s>
-0.5373641	ग न </s>
-0.5384745	ै न </s>
-0.39826757	ल न </s>
-0.4918154	ि न </s>
-0.35968357	ी न </s>
-0.9314405	प न </s>
-1.6209558	ं न </s>
-0.3900801	व न </s>
-0.7456326	च न </s>
-0.4942333	फ न </s>
-0.40161797	भ न </s>
-1.1592848	ख न </s>
-0.13191298	य न </s>
-1.2206386	अ न </s>
-0.47937715	त न </s>
-0.44838005	ई न </s>
-0.48705298	ध न </s>
-0.47365656	ू न </s>
-0.43232173	थ न </s>
-0.44918364	ौ न </s>
-1.053986	ँ न </s>
-1.0565964	ष न </s>
-0.57378685	ठ न </s>
-0.52329946	ण न </s>
-0.3350535	घ न </s>
-0.72860205	छ न </s>
-0.7961376	े उ </s>
-1.2762688	ा उ </s>
-1.5710719	आ उ </s>
-0.59485734	ो उ </s>
-0.45822728	ि उ </s>
-0.55439234	ी उ </s>
-0.83511835	ं उ </s>
-0.28719348	घ उ </s>
-0.5560509	ड ़ </s>
-0.46230128	ा ़ </s>
-0.56031346	श ़ </s>
-0.2903861	ो ़ </s>
-0.47247037	ब ़ </s>
-0.8755524	क ़ </s>
-0.5442034	ज ़ </s>
-0.2903861	न ़ </s>
-1.0254377	ग ़ </s>
-0.2903861	ी ़ </s>
-0.9359358	फ ़ </s>
-1.0728047	ख ़ </s>
-0.80660146	य ़ </s>
-0.119583845	ढ ़ </s>
-0.7441116	े ग </s>
-1.6177053	म ग </s>
-0.8257319	ा ग </s>
-1.5606114	स ग </s>
-0.54213893	् ग </s>
-1.4327304	र ग </s>
-1.6691694	इ ग </s>
-0.9884452	ो ग </s>
-1.2141024	ब ग </s>
-1.0705786	ु ग </s>
-1.4666305	द ग </s>
-0.7441031	उ ग </s>
-1.448456	़ ग </s>
-0.9321108	ग ग </s>
-0.83130336	ै ग </s>
-1.2746805	ल ग </s>
-0.7554566	ि ग </s>
-1.3272785	ी ग </s>
-0.28744665	ं ग </s>
-1.5756004	भ ग </s>
-1.160627	ई ग </s>
-1.174625	ौ ग </s>
-0.91732013	ँ ग </s>
-1.0921794	ृ ग </s>
-1.6502852	ड ै </s>
-2.3023458	म ै </s>
-1.7895854	ट ै </s>
-1.9395612	र ै </s>
-1.8052025	श ै </s>
-2.2870886	क ै </s>
-1.833077	ज ै </s>
-1.4395162	न ै </s>
-2.07872	ग ै </s>
-1.4844993	ल ै </s>
-1.4228045	व ै </s>
-0.3078399	ू ै </s>
-0.3078399	ण ै </s>
-0.6495548	ह ल </s>
-0.69111234	े ल </s>
-0.41979074	ड ल </s>
-0.72821075	म ल </s>
-0.57620704	ा ल </s>
-0.77113426	स ल </s>
-1.5418098	् ल </s>
-0.38414386	ट ल </s>
-0.39943826	र ल </s>
-0.5648664	ए ल </s>
-1.315115	आ ल </s>
-0.6266437	इ ल </s>
-0.45510918	श ल </s>
-0.84244525	ो ल </s>
-0.49664804	ब ल </s>
-0.8146238	ु ल </s>
-0.4543631	क ल </s>
-0.4970526	ज ल </s>
-0.72427255	द ल </s>
-0.3462675	न ल </s>
-1.3238149	उ ल </s>
-0.41866252	़ ल </s>
-0.5363959	ग ल </s>
-1.0762179	ै ल </s>
-0.90788364	ल ल </s>
-0.7504197	ि ल </s>
-0.6424955	ी ल </s>
-0.6098373	प ल </s>
-1.2294626	ं ल </s>
-0.67633694	व ल </s>
-0.34821916	च ल </s>
-0.78463924	फ ल </s>
-1.2406367	ख ल </s>
-0.2185548	य ल </s>
-0.9453094	अ ल </s>
-0.64608276	त ल </s>
-0.4943176	ई ल </s>
-0.46853107	ू ल </s>
-0.604715	थ ल </s>
-0.739533	ौ ल </s>
-0.4628558	ँ ल </s>
-0.3876428	ठ ल </s>
-0.73129267	ढ ल </s>
-0.73129267	घ ल </s>
-0.6681674	छ ल </s>
-1.8533107	ह ि </s>
-1.6389714	ड ि </s>
-1.8375455	म ि </s>
-0.85539615	ा ि </s>
-2.139825	स ि </s>
-1.526543	ट ि </s>
-1.5193818	र ि </s>
-1.9975823	श ि </s>
-0.30470157	ो ि </s>
-1.941291	ब ि </s>
-1.5412077	क ि </s>
-2.1451824	ज ि </s>
-1.340132	द ि </s>
-1.5768888	न ि </s>
-2.11823	़ ि </s>
-2.274668	ग ि </s>
-1.6073601	ल ि </s>
-1.7588476	प ि </s>
-2.0111456	व ि </s>
-1.7370416	च ि </s>
-1.1044028	भ ि </s>
-1.6365749	ख ि </s>
-0.47199064	त ि </s>
-0.58817405	ध ि </s>
-1.401341	थ ि </s>
-0.961673	ष ि </s>
-0.5144712	ण ि </s>
-0.53622425	ह ी </s>
-0.46229106	ड ी </s>
-0.41041902	म ी </s>
-0.3890289	स ी </s>
-0.40405634	ट ी </s>
-0.2532772	र ी </s>
-0.41105458	श ी </s>
-0.53608483	ब ी </s>
-0.20596874	क ी </s>
-0.37018877	ज ी </s>
-0.34855717	द ी </s>
-0.18726647	न ी </s>
-0.23682556	़ ी </s>
-0.41429397	ग ी </s>
-0.28417566	ल ी </s>
-0.48292804	ी ी </s>
-0.559376	प ी </s>
-0.44794786	व ी </s>
-0.29016656	च ी </s>
-0.45734966	फ ी </s>
-0.97050667	भ ी </s>
-0.2544019	ख ी </s>
-0.14509611	य ी </s>
-0.17997421	त ी </s>
-0.27614	ध ी </s>
-0.17198911	थ ी </s>
-0.14777905	ष ी </s>
-0.07187125	ठ ी </s>
-0.2170357	ढ ी </s>
-0.12570755	ण ी </s>
-0.1443201	घ ी </s>
-0.41800952	छ ी </s>
-0.90080434	े प </s>
-0.9800153	ड प </s>
-1.9960766	म प </s>
-1.0036668	ा प </s>
-1.8990428	स प </s>
-1.2852985	् प </s>
-1.1511008	ट प </s>
-1.6482666	र प </s>
-0.8020278	इ प </s>
-0.53740305	श प </s>
-1.0465938	ो प </s>
-0.91586864	ु प </s>
-1.5757324	क प </s>
-1.5229036	उ प </s>
-1.5878762	ग प </s>
-0.57739764	ै प </s>
-1.5393758	ल प </s>
-0.8405846	ि प </s>
-0.94483477	ी प </s>
-0.93434024	ं प </s>
-1.3791578	व प </s>
-1.3832704	च प </s>
-1.3707266	य प </s>
-0.9785019	अ प </s>
-1.6877594	त प </s>
-1.6811725	ई प </s>
-0.5956267	ू प </s>
-1.2498679	ौ प </s>
-0.84208995	ँ प </s>
-1.5807887	ह ं </s>
-1.0281941	े ं </s>
-1.951653	म ं </s>
-0.9316111	ा ं </s>
-1.7328578	स ं </s>
-1.0969751	ट ं </s>
-1.7870104	र ं </s>
-1.2544911	ए ं </s>
-1.6176714	आ ं </s>
-2.2899303	इ ं </s>
-0.061883114	ो ं </s>
-1.9749359	ब ं </s>
-1.9104075	ु ं </s>
-1.642856	क ं </s>
-1.2704204	द ं </s>
-1.967148	उ ं </s>
-1.696742	ग ं </s>
-1.740877	ै ं </s>
-1.1553037	ल ं </s>
-2.4297767	ि ं </s>
-0.7055734	ी ं </s>
-1.5596815	व ं </s>
-1.4116578	फ ं </s>
-1.2036809	य ं </s>
-1.601443	त ं </s>
-0.88614404	ई ं </s>
-0.8048041	ू ं </s>
-1.2745633	ौ ं </s>
-0.57748437	ण ं </s>
-0.6475793	े व </s>
-0.83047366	ड व </s>
-0.9283209	ा व </s>
-0.998659	स व </s>
-1.3171691	् व </s>
-1.5806193	ट व </s>
-1.4016532	र व </s>
-1.552748	ए व </s>
-0.74744576	इ व </s>
-0.9360753	श व </s>
-1.0369072	ो व </s>
-1.5325811	ु व </s>
-1.5426317	ज व </s>
-1.1554136	द व </s>
-1.5292425	न व </s>
-1.776183	ग व </s>
-0.6950919	ै व </s>
-1.712347	ल व </s>
-0.6571082	ि व </s>
-0.9070755	ी व </s>
-1.4542074	प व </s>
-0.43989623	ं व </s>
-0.43387341	भ व </s>
-1.139674	य व </s>
-1.4099554	त व </s>
-1.0922633	ई व </s>
-0.7548394	ध व </s>
-1.163804	ू व </s>
-0.82925266	ौ व </s>
-0.14774875	ँ व </s>
-0.5395503	ण व </s>
-1.0442371	घ व </s>
-1.0773998	े च </s>
-1.6707455	म च </s>
-1.3678985	ा च </s>
-0.8644679	् च </s>
-1.1569974	ट च </s>
-1.4604579	र च </s>
-0.9185053	ए च </s>
-1.1022202	इ च </s>
-1.0091091	श च </s>
-0.851245	ो च </s>
-1.0581354	ु च </s>
-1.0609281	उ च </s>
-0.54380274	ै च </s>
-1.0431682	ल च </s>
-0.52130145	ि च </s>
-0.58981335	ी च </s>
-0.84780145	ं च </s>
-1.0118	य च </s>
-0.98136157	ू च </s>
-0.5724846	ौ च </s>
-0.90667117	े फ </s>
-0.76376194	ा फ </s>
-1.5546619	स फ </s>
-0.9379817	् फ </s>
-1.3330036	ट फ </s>
-1.3148609	र फ </s>
-0.5710414	ए फ </s>
-1.2995117	आ फ </s>
-0.71826106	इ फ </s>
-1.3578236	ो फ </s>
-0.66899437	ु फ </s>
-1.2439275	क फ </s>
-1.2466054	ज फ </s>
-1.2765687	़ फ </s>
-1.0040435	ै फ </s>
-1.3629186	ल फ </s>
-1.0873661	ि फ </s>
-1.0066677	ी फ </s>
-1.5799006	ं फ </s>
-0.8110851	ू फ </s>
-0.8772012	ा भ </s>
-0.63941795	् भ </s>
-1.7553318	र भ </s>
-0.5749495	ल भ </s>
-1.0290742	ं भ </s>
-0.8631073	े ख </s>
-0.8036056	ा ख </s>
-1.2829574	स ख </s>
-0.9557353	् ख </s>
-1.4792452	र ख </s>
-0.60093856	ु ख </s>
-1.4320458	ल ख </s>
-0.6883196	ि ख </s>
-0.43380746	ी ख </s>
-1.1180282	ं ख </s>
-0.89939994	े य </s>
-1.2528919	ड य </s>
-0.6389419	म य </s>
-1.0457714	ा य </s>
-1.3380382	स य </s>
-0.9011822	् य </s>
-1.2774793	ट य </s>
-0.87998873	र य </s>
-1.5028737	आ य </s>
-0.67843324	श य </s>
-1.2785442	ो य </s>
-1.2631197	ु य </s>
-0.9020412	क य </s>
-0.73115057	ज य </s>
-0.55180085	द य </s>
-0.7622564	न य </s>
-1.6944261	ै य </s>
-0.37386405	ल य </s>
-2.0458412	ि य </s>
-0.42636663	ी य </s>
-1.3244479	प य </s>
-1.3088771	ं य </s>
-1.0038396	च य </s>
-0.2903448	भ य </s>
-0.8059582	य य </s>
-1.014273	त य </s>
-0.85901487	ू य </s>
-0.56077224	ँ य </s>
-0.6426353	ष य </s>
-0.1854158	ढ य </s>
-0.9334169	ण य </s>
-1.0546793	ा अ </s>
-0.48654544	स अ </s>
-0.7666783	ह त </s>
-0.81866556	े त </s>
-0.53903705	म त </s>
-0.691568	ा त </s>
-1.2391672	स त </s>
-0.83712924	् त </s>
-0.9308575	ट त </s>
-0.7117627	र त </s>
-1.0927938	ए त </s>
-1.103852	इ त </s>
-0.792594	ो त </s>
-0.54154974	ब त </s>
-0.8396449	ु त </s>
-0.72724754	क त </s>
-0.57543224	ज त </s>
-0.66322666	द त </s>
-0.7114349	न त </s>
-1.5388129	उ त </s>
-0.57398736	़ त </s>
-0.6434295	ग त </s>
-0.70792544	ै त </s>
-0.7483511	ल त </s>
-0.56111825	ि त </s>
-0.5433047	ी त </s>
-0.73629105	प त </s>
-0.6042256	ं त </s>
-0.80279726	व त </s>
-1.3184751	च त </s>
-0.9987567	फ त </s>
-0.9308575	ख त </s>
-0.3201624	य त </s>
-1.3898783	अ त </s>
-1.2597204	त त </s>
-0.47752658	ू त </s>
-0.9418534	ौ त </s>
-0.28976098	ठ त </s>
-0.43742436	ृ त </s>
-0.15907589	ह ई </s>
-0.06347031	े ई </s>
-0.24435614	ड ई </s>
-0.27413362	म ई </s>
-0.2054337	ा ई </s>
-0.5149749	स ई </s>
-0.47863162	् ई </s>
-0.24435614	ट ई </s>
-0.3392594	र ई </s>
-0.59660804	ए ई </s>
-0.6517835	आ ई </s>
-0.24435614	इ ई </s>
-0.24435614	श ई </s>
-0.10900394	ो ई </s>
-0.084957644	ब ई </s>
-0.23531477	ु ई </s>
-0.24389978	क ई </s>
-0.22835898	द ई </s>
-0.9328552	न ई </s>
-0.22835898	़ ई </s>
-0.46487802	ग ई </s>
-0.24435614	ै ई </s>
-0.20268773	ल ई </s>
-0.46487802	ि ई </s>
-0.53878164	ी ई </s>
-0.24389978	ं ई </s>
-0.15775868	व ई </s>
-0.38536745	च ई </s>
-0.24435614	त ई </s>
-0.76393497	ई ई </s>
-0.24435614	ध ई </s>
-0.5543202	ू ई </s>
-0.24389978	ँ ई </s>
-0.24435614	घ ई </s>
-0.40700144	े ध </s>
-1.4249362	ा ध </s>
-0.62687016	् ध </s>
-0.44613996	ट ध </s>
-1.2237252	र ध </s>
-0.76016504	ो ध </s>
-1.2525003	ु ध </s>
-0.76941633	ग ध </s>
-0.7850456	ं ध </s>
-0.96348137	व ध </s>
-0.55539596	य ध </s>
-0.7007443	ू ध </s>
-1.1671281	ौ ध </s>
-0.9518216	ँ ध </s>
-0.28745213	ष ध </s>
-0.6689005	ह ू </s>
-0.45957378	ड ू </s>
-0.9852296	म ू </s>
-1.4411892	स ू </s>
-0.69144285	ट ू </s>
-0.84469473	र ू </s>
-0.7409396	श ू </s>
-0.69242984	ब ू </s>
-0.7927933	क ू </s>
-1.1289147	ज ू </s>
-0.4861589	द ू </s>
-0.54109734	न ू </s>
-1.0980445	़ ू </s>
-0.7301662	ग ू </s>
-0.6496809	ल ू </s>
-0.91235083	प ू </s>
-0.7616362	व ू </s>
-0.6862044	च ू </s>
-0.6835909	फ ू </s>
-1.0197848	भ ू </s>
-0.7634963	ख ू </s>
-1.0040622	य ू </s>
-1.0058938	त ू </s>
-0.5767579	ध ू </s>
-0.764728	थ ू </s>
-0.80839014	ठ ू </s>
-0.56186473	ण ू </s>
-0.56186473	घ ू </s>
-0.4511569	छ ू </s>
-0.6713328	े थ </s>
-0.7000289	ड थ </s>
-0.68333596	म थ </s>
-0.17898262	ा थ </s>
-0.5544042	स थ </s>
-0.568266	् थ </s>
-0.60900885	र थ </s>
-0.86597866	आ थ </s>
-1.3863928	इ थ </s>
-0.86353254	ो थ </s>
-0.88867855	ु थ </s>
-0.7527415	उ थ </s>
-1.3255851	ै थ </s>
-0.7960805	ल थ </s>
-0.6807572	ि थ </s>
-0.59273994	ी थ </s>
-0.2592529	प थ </s>
-0.7575815	ं थ </s>
-0.5679672	ू थ </s>
-0.8659055	ौ थ </s>
-0.55488396	ँ थ </s>
-1.1235796	ड ौ </s>
-1.1765807	र ौ </s>
-1.2221985	श ौ </s>
-1.879308	क ौ </s>
-1.4300642	ज ौ </s>
-0.8703167	़ ौ </s>
-1.7031996	ल ौ </s>
-0.48255968	ा ँ </s>
-0.48450252	ए ँ </s>
-0.29850414	ो ँ </s>
-0.3132633	ू ँ </s>
-0.90338016	े ष </s>
-1.1154519	ा ष </s>
-0.7496507	् ष </s>
-0.6288143	र ष </s>
-0.42471164	ो ष </s>
-0.72292805	ु ष </s>
-1.1712072	ै ष </s>
-1.3726916	ि ष </s>
-0.546662	ी ष </s>
-0.8181169	ू ष </s>
-0.18192324	ौ ष </s>
-0.70548314	े ठ </s>
-0.18070678	म ठ </s>
-0.9157073	ा ठ </s>
-0.42759484	् ठ </s>
-0.1117759	र ठ </s>
-0.9716705	ो ठ </s>
-1.0263624	ि ठ </s>
-0.33328444	ी ठ </s>
-0.8106548	ं ठ </s>
-0.75857097	े ढ </s>
-1.1227744	् ढ </s>
-1.113348	ग ढ </s>
-0.20708536	ह ण </s>
-0.6044104	म ण </s>
-0.6890786	ा ण </s>
-0.63460743	् ण </s>
-0.26740614	ट ण </s>
-0.2635025	र ण </s>
-0.36540133	श ण </s>
-0.40783596	ो ण </s>
-0.7758437	ु ण </s>
-1.1619431	क ण </s>
-0.27371168	न ण </s>
-0.6591182	ग ण </s>
-1.9833629	ै ण </s>
-1.357424	ि ण </s>
-0.6270455	ी ण </s>
-0.7158375	प ण </s>
-0.90101933	ं ण </s>
-0.22456479	व ण </s>
-0.15653281	य ण </s>
-0.6661218	त ण </s>
-0.8666677	ू ण </s>
-0.10382431	ष ण </s>
-1.3715618	े घ </s>
-1.2263166	ा घ </s>
-1.739109	् घ </s>
-1.0285869	ु घ </s>
-1.2105845	ी घ </s>
-1.2114263	ं घ </s>
-0.9838271	ा छ </s>
-0.8469111	् छ </s>
-0.291578	ु छ </s>
-0.2770637	ं छ </s>
-0.5630737	ँ छ </s>
-1.2043656	ह ृ </s>
-0.7537624	ट ृ </s>
-1.2336313	त ृ </s>
-2.9803388	<s> ह ह
-0.10422846	ह ह ह
-2.5712311	ड े ह
-1.5758636	म े ह
-2.0326924	स े ह
-2.8228164	ट े ह
-2.3946426	र े ह
-1.8784084	श े ह
-0.7600922	ो े ह
-1.9605002	ब े ह
-2.3957222	क े ह
-1.7084981	ज े ह
-1.5971007	द े ह
-1.6911013	न े ह
-2.0611875	ग े ह
-2.2493472	ल े ह
-2.340215	प े ह
-2.331644	व े ह
-2.2828543	फ े ह
-1.6500556	य े ह
-1.0413612	त े ह
-3.1646168	<s> ड ह
-2.4680967	े ड ह
-2.7876556	् ड ह
-2.2566555	ए ड ह
-3.073725	ं ड ह
-1.8431947	ौ ड ह
-1.2082694	<s> म ह
-2.558012	ा म ह
-2.665387	् म ह
-2.0657318	र म ह
-2.2457213	इ म ह
-2.5469966	ो म ह
-2.6442275	क म ह
-1.3785655	ज म ह
-2.4753788	ल म ह
-2.6781125	ि म ह
-1.4673557	च म ह
-2.7350526	ह ा ह
-2.0300403	ड ा ह
-1.8993185	म ा ह
-1.3449633	स ा ह
-2.547455	ट ा ह
-1.54585	र ा ह
-0.8144188	श ा ह
-1.80311	ब ा ह
-2.2879052	क ा ह
-1.8909545	ज ा ह
-1.9621166	द ा ह
-2.1134734	न ा ह
-1.6806926	़ ा ह
-1.8573684	ग ा ह
-1.4952456	ल ा ह
-2.246934	प ा ह
-1.4431055	व ा ह
-1.9615548	च ा ह
-2.0254211	य ा ह
-2.0971515	त ा ह
-2.278767	ध ा ह
-2.199227	थ ा ह
-1.9756376	घ ा ह
-2.098144	<s> स ह
-2.8422174	े स ह
-2.7170365	ा स ह
-2.7527726	र स ह
-2.3346157	इ स ह
-2.4306912	ु स ह
-2.015304	उ स ह
-1.8649371	म ् ह
-3.4535654	स ् ह
-2.995532	ट ् ह
-2.9231803	र ् ह
-2.5955138	श ् ह
-2.1784673	ज ् ह
-1.9104193	न ् ह
-1.6727273	ल ् ह
-0.71187884	व ् ह
-1.7114909	च ् ह
-2.7762537	फ ् ह
-0.8915824	छ ् ह
-2.9505856	े ट ह
-3.4597726	् ट ह
-2.269414	इ ट ह
-2.7367568	ो ट ह
-2.104186	प ट ह
-3.020861	ं ट ह
-1.6242498	च ट ह
-2.1953423	<s> र ह
-2.585434	े र ह
-2.1546352	ड र ह
-2.4199588	म र ह
-2.5602295	ा र ह
-1.9242526	स र ह
-1.634372	् र ह
-2.8593702	ट र ह
-2.0567448	ए र ह
-2.733899	ो र ह
-1.8293077	ब र ह
-2.6265342	ु र ह
-2.66543	क र ह
-2.2325068	द र ह
-2.3248165	न र ह
-2.0646143	़ र ह
-2.2412784	ग र ह
-2.3643994	ै र ह
-2.3295515	ि र ह
-2.0866337	प र ह
-2.731517	व र ह
-2.0725462	फ र ह
-1.5092098	भ र ह
-2.0588772	य र ह
-2.1955678	अ र ह
-2.2009475	त र ह
-2.531007	ू र ह
-2.5702631	<s> ए ह
-2.275248	<s> आ ह
-1.683953	ो आ ह
-1.8807275	ु आ ह
-1.8216821	ि आ ह
-1.6030222	ू आ ह
-2.8399823	<s> इ ह
-1.7281975	े इ ह
-3.146206	ा इ ह
-0.97410905	स इ ह
-0.6044021	ए इ ह
-1.7805887	<s> श ह
-1.6109055	म श ह
-2.2676883	ा श ह
-1.3423613	ज श ह
-0.7058432	द श ह
-2.0927804	ं श ह
-1.5086116	ौ श ह
-2.2600348	ह ो ह
-2.4781797	ड ो ह
-1.0311453	म ो ह
-1.6387821	स ो ह
-1.6857603	र ो ह
-1.6273767	ब ो ह
-1.622448	क ो ह
-1.4842486	ज ो ह
-1.221383	द ो ह
-2.5117493	न ो ह
-2.1563766	़ ो ह
-2.0024836	ग ो ह
-1.6634597	ल ो ह
-2.163897	व ो ह
-2.4186046	फ ो ह
-2.3456433	य ो ह
-2.0228882	त ो ह
-1.8321275	<s> ब ह
-2.7132246	ा ब ह
-2.214237	स ब ह
-1.7965066	ज ब ह
-1.6692107	ग ब ह
-2.4285154	ि ब ह
-2.3725703	ं ब ह
-1.8968214	ह ु ह
-1.278569	म ु ह
-1.7899113	स ु ह
-2.1162298	र ु ह
-2.452262	ब ु ह
-2.0009909	क ु ह
-1.69664	ज ु ह
-2.000017	द ु ह
-2.1467211	न ु ह
-1.9180493	ग ु ह
-2.2616355	ल ु ह
-2.2529228	त ु ह
-2.4836552	<s> क ह
-2.7942228	े क ह
-2.7958386	ा क ह
-2.2010953	स क ह
-2.9326932	् क ह
-2.5926495	ए क ह
-2.2967997	न क ह
-2.7545562	ं क ह
-2.0588918	त क ह
-1.8766927	<s> ज ह
-0.46005824	ह ज ह
-2.5064392	ा ज ह
-2.7650673	् ज ह
-1.909779	र ज ह
-1.5834148	अ ज ह
-2.446816	<s> द ह
-2.4897735	ु द ह
-2.0479395	ल द ह
-2.900832	ं द ह
-2.335855	<s> न ह
-2.16798	े न ह
-1.9869473	ड न ह
-3.0810828	ा न ह
-2.4533186	् न ह
-2.188001	ट न ह
-2.3928175	र न ह
-2.1708868	ए न ह
-2.1014395	इ न ह
-2.7700067	ो न ह
-1.9967223	ु न ह
-2.1240954	क न ह
-2.1088338	ज न ह
-2.1715164	न न ह
-2.1537867	ग न ह
-2.028257	ै न ह
-2.7208934	ि न ह
-2.4842458	ी न ह
-1.757182	प न ह
-2.1303668	व न ह
-1.6755037	अ न ह
-2.4130068	ू न ह
-2.701452	ड ़ ह
-2.4683416	ज ़ ह
-2.7997332	फ ़ ह
-2.0822353	ढ ़ ह
-3.2530973	<s> ग ह
-2.4376624	े ग ह
-1.6523716	म ग ह
-1.7274488	ब ग ह
-2.5042627	ि ग ह
-2.7762823	ं ग ह
-1.997286	अ ग ह
-2.783271	म ै ह
-2.3749168	स ै ह
-2.767482	क ै ह
-1.8586085	़ ै ह
-2.349964	ल ै ह
-2.188845	<s> ल ह
-2.3841352	े ल ह
-2.0036182	ड ल ह
-2.1357398	म ल ह
-2.7898235	ा ल ह
-2.2410185	स ल ह
-3.0682347	् ल ह
-2.4544985	ए ल ह
-2.530012	इ ल ह
-2.8361979	ो ल ह
-2.3727736	ब ल ह
-2.2723203	ु ल ह
-2.6030328	क ल ह
-2.4797857	ै ल ह
-2.7747395	ि ल ह
-2.4833488	ी ल ह
-1.8596513	त ल ह
-1.6907389	थ ल ह
-2.3094008	ड ि ह
-2.154463	म ि ह
-2.5083814	स ि ह
-2.2216945	ट ि ह
-2.2517786	र ि ह
-1.561816	ब ि ह
-2.7352164	क ि ह
-1.8107083	ज ि ह
-2.199671	न ि ह
-2.3098655	ल ि ह
-2.5679128	प ि ह
-2.09068	व ि ह
-2.2220213	च ि ह
-1.8320342	त ि ह
-2.8235564	ड ी ह
-2.7258375	म ी ह
-2.413146	स ी ह
-2.354663	र ी ह
-2.2793138	श ी ह
-2.769268	ज ी ह
-2.470758	न ी ह
-2.7833402	ल ी ह
-2.6417243	प ी ह
-2.2385209	फ ी ह
-2.5752234	त ी ह
-2.4720094	<s> प ह
-2.236602	ा प ह
-2.0071075	उ प ह
-2.818592	ि प ह
-2.1862922	अ प ह
-2.9491806	ा ं ह
-2.1911023	स ं ह
-2.7043028	इ ं ह
-1.9991403	श ं ह
-2.2311687	ु ं ह
-2.2761784	न ं ह
-1.4408667	ि ं ह
-2.207992	अ ं ह
-1.8072172	ू ं ह
-2.1351526	<s> व ह
-2.5151932	े व ह
-2.1493628	ड व ह
-2.6260366	ा व ह
-3.0585651	् व ह
-2.5185943	र व ह
-2.4822936	ि व ह
-1.8348624	य व ह
-2.5281398	<s> च ह
-1.149139	क च ह
-2.09292	<s> य ह
-2.567562	े य ह
-3.376528	् य ह
-1.7285838	<s> अ ह
-1.0659657	क अ ह
-1.847271	<s> त ह
-2.3302581	् त ह
-1.3105023	ए त ह
-2.3163755	ु त ह
-1.3414499	़ त ह
-0.7267265	फ त ह
-1.6382594	न ई ह
-1.9918705	म ू ह
-1.784234	र ू ह
-1.9094417	ब ू ह
-2.1139212	क ू ह
-1.9025286	ज ू ह
-1.5755682	न ू ह
-1.4504076	व ू ह
-2.4672196	य ू ह
-2.0347161	ै थ ह
-1.609349	र ौ ह
-1.5518444	ब ौ ह
-0.8318004	ज ौ ह
-1.6413764	न ौ ह
-1.6330984	ग ौ ह
-1.4817181	ल ौ ह
-1.4318126	च ौ ह
-1.4050651	त ौ ह
-0.30509803	ष ौ ह
-0.9788144	ु ँ ह
-1.3711655	<s> ठ ह
-2.5655155	ा ण ह
-0.47091708	ब ृ ह
-0.20359008	ग ृ ह
-1.1593264	व ृ ह
-1.3573055	त ृ ह
-0.8726913	<s> ह े
-1.4526978	े ह े
-0.7496112	ड ह े
-1.0071812	म ह े
-1.3360549	ा ह े
-1.4286253	स ह े
-0.7913008	् ह े
-0.74857605	ट ह े
-1.5425715	र ह े
-1.3896983	ो ह े
-1.5468988	ब ह े
-1.0024853	ु ह े
-1.4684111	क ह े
-1.0161368	द ह े
-0.7360538	न ह े
-1.1181593	ल ह े
-1.6372614	ि ह े
-1.2933145	ी ह े
-1.3180561	प ह े
-1.5338897	ं ह े
-1.4349873	व ह े
-1.0587368	य ह े
-1.4999216	अ ह े
-1.0779253	ू ह े
-2.9477906	ड े े
-3.0558913	ब े े
-0.80188286	<s> ड े
-1.317418	े ड े
-1.6228882	म ड े
-1.212853	ा ड े
-0.9300809	स ड े
-1.2809036	् ड े
-1.0459754	र ड े
-1.2894751	ए ड े
-1.1009508	आ ड े
-1.1624649	इ ड े
-1.0408663	ो ड े
-1.650156	ब ड े
-1.4434882	क ड े
-1.035392	न ड े
-1.0746117	उ ड े
-1.5658132	ग ड े
-1.6548339	ै ड े
-1.5765679	ल ड े
-1.0741609	ि ड े
-1.1344619	ी ड े
-0.64700013	प ड े
-1.2155356	ं ड े
-1.2288707	य ड े
-1.7684534	ई ड े
-1.1962587	ू ड े
-1.0858254	थ ड े
-0.95206875	<s> म े
-1.7518085	ह म े
-1.1248145	े म े
-1.4734353	ड म े
-1.2253141	ा म े
-1.0288535	स म े
-1.1517038	् म े
-0.68434715	ट म े
-0.99603635	र म े
-2.2770202	ए म े
-0.95476854	आ म े
-0.8477824	इ म े
-1.3954463	श म े
-0.86803055	ो म े
-1.4799669	ब म े
-1.2668507	ु म े
-1.1455369	क म े
-0.9357575	ज म े
-0.9175499	न म े
-1.0839303	उ म े
-0.60149765	़ म े
-1.1919134	ग म े
-1.4217724	ै म े
-1.2840918	ल म े
-1.0908936	ि म े
-0.88965225	ी म े
-0.5096814	प म े
-1.3042338	ं म े
-0.88093007	व म े
-0.84166306	च म े
-1.3723611	ख म े
-2.0322657	य म े
-0.8106906	अ म े
-1.14135	ई म े
-0.91688246	ू म े
-1.2478886	थ म े
-1.1892629	ौ म े
-1.288891	ष म े
-3.4649293	म ा े
-3.7108989	र ा े
-1.0679642	<s> स े
-1.3160212	े स े
-1.3438176	ड स े
-1.2311395	म स े
-1.6638938	ा स े
-1.320692	स स े
-1.3726301	् स े
-1.492585	ट स े
-1.0356194	र स े
-1.6620606	ए स े
-1.7332802	आ स े
-0.9584862	इ स े
-1.0275352	ो स े
-1.234962	ब स े
-1.398785	ु स े
-1.51774	क स े
-1.7686082	ज स े
-1.2929348	द स े
-1.0595646	न स े
-1.5878477	उ स े
-1.5975231	़ स े
-1.0629635	ै स े
-1.2697183	ल स े
-1.4350389	ि स े
-1.111253	ी स े
-1.6408389	प स े
-1.4255428	ं स े
-1.5141063	व स े
-1.2457545	य स े
-0.951083	अ स े
-1.4703872	त स े
-1.7113607	ई स े
-1.0919905	ू स े
-1.1425195	ौ स े
-1.0280036	ण स े
-0.7128699	<s> ट े
-1.1629065	े ट े
-0.91403604	म ट े
-1.4018726	ा ट े
-0.9328743	स ट े
-1.0029913	् ट े
-0.93530464	ट ट े
-0.70067686	र ट े
-1.8571945	ए ट े
-1.3828486	आ ट े
-1.3815233	इ ट े
-0.9375348	ो ट े
-1.3378667	ब ट े
-1.1179589	ु ट े
-1.0753492	क ट े
-1.020496	ज ट े
-1.0243254	न ट े
-1.0505688	़ ट े
-1.3567829	ग ट े
-1.1497171	ै ट े
-0.92021775	ल ट े
-1.0863189	ि ट े
-1.3185143	ी ट े
-1.3912265	प ट े
-1.0779201	ं ट े
-1.1563329	व ट े
-1.4131955	फ ट े
-0.8512274	अ ट े
-1.663274	ई ट े
-1.1158528	ू ट े
-0.5723157	थ ट े
-0.8920416	ौ ट े
-1.1401622	ँ ट े
-0.8368845	<s> र े
-1.3352218	ह र े
-1.0178385	े र े
-1.6208442	ड र े
-1.3293253	म र े
-1.5981915	ा र े
-2.1926644	स र े
-0.8642938	् र े
-1.5787085	ट र े
-1.8532608	र र े
-1.3814318	ए र े
-0.82634497	इ र े
-1.8077796	श र े
-1.1723541	ो र े
-1.6639848	ब र े
-1.4873403	ु र े
-1.386967	क र े
-1.2810932	ज र े
-1.7390198	द र े
-1.2200005	न र े
-1.4704243	़ र े
-1.5476447	ग र े
-0.80352265	ै र े
-1.8418398	ल र े
-1.4729077	ि र े
-1.4842778	ी र े
-1.1595473	प र े
-2.0557256	व र े
-2.1680715	च र े
-1.2808871	फ र े
-1.3482515	ख र े
-1.4264681	य र े
-1.5607866	अ र े
-1.8631586	त र े
-2.0347686	ध र े
-1.1989347	ू र े
-1.6257467	थ र े
-1.6985606	ौ र े
-1.0738633	ँ र े
-1.0216799	ण र े
-0.9852812	<s> श े
-2.0936055	े श े
-1.2597761	ड श े
-0.8285085	म श े
-1.2424163	ा श े
-1.5136926	् श े
-0.7550053	र श े
-1.0893413	इ श े
-1.9034775	ो श े
-1.288036	क श े
-1.2930379	न श े
-1.1668402	ग श े
-1.2051258	ै श े
-1.1464809	ल श े
-1.4932365	ि श े
-1.6531954	ू श े
-3.2720811	क ो े
-2.855307	य ो े
-0.94181484	<s> ब े
-1.247731	े ब े
-1.4640633	ड ब े
-1.2483186	म ब े
-1.142153	ा ब े
-1.5183252	स ब े
-0.8457321	् ब े
-1.0804044	ट ब े
-1.6177881	र ब े
-0.93872976	ए ब े
-0.8958617	इ ब े
-0.82944536	ो ब े
-1.1843195	ब ब े
-1.1492712	ु ब े
-1.1177666	क ब े
-0.46243325	ज ब े
-1.2840105	द ब े
-0.99243563	न ब े
-0.37300703	़ ब े
-1.3923125	ै ब े
-1.5285351	ल ब े
-1.1483153	ि ब े
-1.2883513	ी ब े
-0.5384782	प ब े
-1.2148342	ं ब े
-1.0149857	च ब े
-1.328368	अ ब े
-1.5937932	ई ब े
-0.8003111	ू ब े
-0.9063301	ौ ब े
-0.7264948	ण ब े
-1.0532444	<s> क े
-1.3258957	ह क े
-1.5760521	े क े
-1.2780589	ड क े
-1.3924822	म क े
-1.3900148	ा क े
-0.91569436	स क े
-1.1536224	् क े
-1.0855137	ट क े
-1.5175959	र क े
-1.484583	ए क े
-1.5906223	इ क े
-1.445646	श क े
-1.1284064	ो क े
-1.2645601	ु क े
-1.2410748	क क े
-1.568625	द क े
-1.758701	न क े
-1.4636859	़ क े
-1.1998876	ग क े
-1.0515264	ै क े
-1.3979272	ल क े
-1.2299178	ि क े
-1.0116556	ी क े
-1.460737	प क े
-1.3804324	ं क े
-1.4440911	य क े
-1.2215952	अ क े
-1.2573535	त क े
-1.3003918	ई क े
-1.262847	ध क े
-1.1052434	ू क े
-1.039607	थ क े
-1.0376709	ठ क े
-1.2594064	ण क े
-0.9633002	<s> ज े
-1.4919058	ह ज े
-1.2319881	े ज े
-1.5354701	म ज े
-1.4350038	ा ज े
-0.7755601	स ज े
-0.9023639	् ज े
-1.279922	ट ज े
-1.0485892	र ज े
-0.33233663	ए ज े
-0.8248707	इ ज े
-0.9891446	ो ज े
-1.8216392	ु ज े
-1.3589518	क ज े
-1.4240944	न ज े
-0.7211673	ग ज े
-0.9715435	ै ज े
-1.4062319	ल ज े
-1.4769807	ि ज े
-1.4436691	ी ज े
-0.94123995	प ज े
-1.2453494	ं ज े
-1.5044543	व ज े
-1.1707962	य ज े
-1.6489027	अ ज े
-1.3864137	त ज े
-1.6557827	ई ज े
-1.8561028	ू ज े
-0.9116786	ृ ज े
-0.75752985	<s> द े
-0.7680994	ह द े
-1.5431516	े द े
-1.0087782	म द े
-1.0909551	ा द े
-1.0751894	स द े
-1.392458	् द े
-0.83688885	र द े
-0.8170581	ए द े
-1.53549	आ द े
-1.1749625	इ द े
-1.2754841	ो द े
-1.1771047	ु द े
-1.369954	क द े
-0.9713084	न द े
-1.2688593	़ द े
-1.2694852	ग द े
-0.8341558	ल द े
-1.1683841	ि द े
-1.5370605	ी द े
-1.1656979	प द े
-1.4461695	ं द े
-0.76852435	व द े
-0.5667979	च द े
-1.63649	भ द े
-0.7376481	ख द े
-0.56058943	य द े
-1.4578654	अ द े
-0.27854452	ध द े
-1.5260615	ू द े
-1.4621649	ष द े
-0.8206432	ण द े
-0.9123303	<s> न े
-1.919367	ह न े
-1.3004525	े न े
-1.561737	ड न े
-1.6573489	म न े
-1.5575389	ा न े
-2.141884	स न े
-0.94230884	् न े
-1.2650055	ट न े
-0.9230592	र न े
-2.0758476	ए न े
-1.8569396	आ न े
-1.3588266	इ न े
-2.6224644	श न े
-0.9907594	ो न े
-1.0672829	ब न े
-1.3951733	ु न े
-1.1515208	क न े
-1.299902	ज न े
-1.8640506	द न े
-1.5821227	न न े
-1.8910682	उ न े
-1.5896904	़ न े
-1.086423	ग न े
-1.1903889	ै न े
-1.7485657	ल न े
-1.2977945	ि न े
-1.2731097	ी न े
-1.5189543	प न े
-1.6566792	ं न े
-1.118724	व न े
-1.9244487	च न े
-1.4362208	फ न े
-1.7565145	य न े
-2.0062578	अ न े
-1.9075966	त न े
-1.3399184	ई न े
-1.3444598	ध न े
-1.3985412	ू न े
-1.5099354	ौ न े
-0.30089965	ढ न े
-0.98444426	छ न े
-1.2052376	ड ़ े
-0.8569621	श ़ े
-2.1394444	क ़ े
-1.2850196	ज ़ े
-1.7710791	ग ़ े
-1.2283214	फ ़ े
-0.5887476	थ ़ े
-2.004683	ढ ़ े
-1.4575337	<s> ग े
-1.2730306	े ग े
-1.1439507	ड ग े
-1.4731414	ा ग े
-1.0886385	् ग े
-1.0643454	ट ग े
-1.8579643	र ग े
-1.614739	ए ग े
-1.3441637	आ ग े
-1.6561625	इ ग े
-1.4209036	ो ग े
-1.2185721	ु ग े
-0.9175439	क ग े
-1.2766031	द ग े
-1.3813249	न ग े
-1.2417281	़ ग े
-1.6603924	ै ग े
-1.5264522	ल ग े
-0.95954067	ि ग े
-0.96268517	ी ग े
-1.6200616	ं ग े
-0.95920336	च ग े
-1.6062375	अ ग े
-0.76109105	ई ग े
-1.369671	ू ग े
-1.082354	ण ग े
-2.202378	न ै े
-0.83840716	<s> ल े
-1.7791189	ह ल े
-1.1933126	े ल े
-1.4890552	ड ल े
-1.1067648	म ल े
-1.5252262	ा ल े
-1.1212814	स ल े
-0.79280216	् ल े
-1.2788125	ट ल े
-1.3548678	र ल े
-1.2549772	ए ल े
-1.5771196	आ ल े
-0.7202345	इ ल े
-1.2782676	श ल े
-1.3196883	ो ल े
-1.3784546	ब ल े
-0.84300184	ु ल े
-1.1805608	क ल े
-1.5618156	ज ल े
-1.1302929	द ल े
-1.2234263	न ल े
-1.4659927	उ ल े
-1.0104016	़ ल े
-1.9126904	ग ल े
-0.7845033	ै ल े
-1.1145216	ि ल े
-1.3198143	ी ल े
-1.1273382	प ल े
-1.2402639	ं ल े
-1.544312	व ल े
-1.3935411	च ल े
-0.86375046	फ ल े
-0.9176919	भ ल े
-0.77584445	ख ल े
-1.5371636	य ल े
-1.4199674	अ ल े
-1.5964712	त ल े
-1.0876541	ई ल े
-0.30024862	ध ल े
-1.0712228	ू ल े
-0.9110369	थ ल े
-1.6318243	ौ ल े
-0.73475283	ँ ल े
-3.4354675	र ी े
-2.8582711	क ी े
-2.7982388	द ी े
-1.0378716	<s> प े
-1.4142876	े प े
-1.4780247	ड प े
-1.249507	म प े
-1.6413867	ा प े
-1.4056906	स प े
-0.91076255	् प े
-1.5516745	र प े
-1.326952	ए प े
-1.3595909	आ प े
-1.3020697	इ प े
-1.2058399	ो प े
-1.0437782	ब प े
-1.7841322	ु प े
-0.9921298	ज प े
-1.2309625	न प े
-1.1674826	उ प े
-1.2761905	़ प े
-1.604195	ै प े
-1.2107053	ल प े
-1.302643	ि प े
-1.4627432	ी प े
-1.3692088	ं प े
-1.7098438	अ प े
-1.8771362	ई प े
-1.5385379	ू प े
-0.76190805	थ प े
-3.2278554	ा ं े
-0.8156213	<s> व े
-1.157661	ह व े
-1.1473559	े व े
-1.2264274	ड व े
-0.5676811	म व े
-1.2872846	ा व े
-1.2232842	स व े
-0.8638201	् व े
-0.6958076	ट व े
-1.007222	र व े
-1.239118	ए व े
-1.2565814	आ व े
-1.0186722	इ व े
-1.3776605	श व े
-0.9020634	ो व े
-0.28686988	ब व े
-1.405233	ु व े
-1.4731508	क व े
-1.5091894	ज व े
-1.3711208	द व े
-1.2147796	न व े
-0.56409365	उ व े
-0.9672638	़ व े
-1.2895132	ग व े
-0.97075737	ै व े
-0.92511624	ल व े
-0.99230856	ि व े
-1.249289	ी व े
-0.6605532	प व े
-1.3448802	ं व े
-0.46136206	व व े
-1.0846733	च व े
-1.2693783	य व े
-1.1492122	अ व े
-1.5008525	त व े
-1.0650377	ई व े
-1.3848585	ध व े
-1.1401067	ू व े
-0.28300986	थ व े
-0.9318246	<s> च े
-1.0696149	े च े
-1.438586	ा च े
-0.4130547	स च े
-1.0148716	् च े
-1.0461428	र च े
-1.089974	इ च े
-0.77318114	श च े
-1.1294187	ो च े
-1.1975539	ब च े
-0.7643409	ु च े
-1.3237398	क च े
-0.29436663	ज च े
-0.7919144	न च े
-1.3759276	ै च े
-1.1552223	ल च े
-0.97633547	ि च े
-1.3541472	ी च े
-1.402531	ं च े
-1.0006251	य च े
-1.3643924	अ च े
-0.5682988	ण च े
-1.2038255	<s> फ े
-1.1392422	े फ े
-0.4902699	म फ े
-1.5760684	ा फ े
-1.2937055	स फ े
-1.0012046	् फ े
-0.7890428	र फ े
-1.9889312	ए फ े
-1.0065602	इ फ े
-0.96913445	ो फ े
-1.4627154	ु फ े
-1.0633861	क फ े
-1.1424642	न फ े
-0.8342503	ै फ े
-1.366154	ल फ े
-1.0354297	ि फ े
-0.8059414	ी फ े
-0.70802146	प फ े
-1.285569	ं फ े
-1.0344485	ई फ े
-1.6129453	<s> भ े
-1.8586103	ा भ े
-1.5024695	ि भ े
-1.6765645	ं भ े
-1.6187046	अ भ े
-0.7583035	ौ भ े
-1.1818736	<s> ख े
-1.4230015	े ख े
-1.7239244	ा ख े
-1.4784558	् ख े
-1.50216	र ख े
-0.68297935	ो ख े
-0.9556864	ी ख े
-1.2488045	अ ख े
-0.30547342	ँ ख े
-1.1448182	<s> य े
-2.1043003	े य े
-1.5914111	म य े
-1.7376856	ा य े
-1.990077	् य े
-1.6780422	आ य े
-1.7063228	इ य े
-1.3594847	ो य े
-0.8120214	ु य े
-1.6749655	ज य े
-1.8404053	ै य े
-1.4571357	ल य े
-1.8280917	ि य े
-2.3458724	ी य े
-1.2642422	प य े
-1.4643756	व य े
-1.4291031	अ य े
-1.9421794	ु अ े
-1.2308996	<s> त े
-1.3346635	ह त े
-1.8360093	े त े
-1.8323733	म त े
-1.5331745	ा त े
-1.8876637	स त े
-1.4626994	् त े
-1.4479487	र त े
-0.94873476	ए त े
-1.8440409	ो त े
-1.2368541	ब त े
-1.9867268	ु त े
-1.3213816	क त े
-1.6109995	द त े
-1.4452298	न त े
-1.2271631	उ त े
-0.8933648	़ त े
-1.4320182	ग त े
-0.90794325	ल त े
-1.6703546	ि त े
-1.6538128	ी त े
-1.9708326	प त े
-1.7072561	ं त े
-0.3876711	फ त े
-1.2384536	य त े
-1.7722449	ृ त े
-2.0835717	<s> ध े
-1.0480231	े ध े
-1.8620147	म ध े
-1.8844099	ा ध े
-1.8645089	् ध े
-0.8395414	ब ध े
-1.6235102	ि ध े
-1.5238518	ं ध े
-1.0274124	व ध े
-1.4310153	ौ ध े
-2.0800562	क ू े
-2.004179	त ू े
-1.0938573	<s> थ े
-0.9970047	े थ े
-1.4041816	ा थ े
-1.191334	् थ े
-0.9897317	ए थ े
-0.97511643	इ थ े
-0.52770823	ो थ े
-1.2199098	ु थ े
-1.1254011	उ थ े
-1.2345322	ै थ े
-1.5291189	ि थ े
-1.321195	ी थ े
-1.3541644	प थ े
-0.8112831	ं थ े
-0.8330596	य थ े
-0.8744463	ू थ े
-0.8940294	ौ थ े
-1.3285255	<s> ष े
-1.3514872	् ष े
-1.3530948	ि ष े
-0.73672456	<s> ठ े
-1.1193253	े ठ े
-1.3173862	ा ठ े
-0.2976178	न ठ े
-0.83078843	ै ठ े
-1.0133059	ं ठ े
-1.005649	<s> ढ े
-1.8250229	ग ढ े
-0.3098344	य ढ े
-1.9842107	म ण े
-1.3955517	ा ण े
-1.8623309	् ण े
-0.7439847	ब ण े
-1.5117109	ु ण े
-0.58371425	ग ण े
-1.7113061	ि ण े
-0.86095726	अ ण े
-1.3396654	ू ण े
-1.3436456	<s> घ े
-1.417661	े घ े
-0.7489947	ब घ े
-0.99698335	ी घ े
-1.4051375	ं घ े
-1.6926833	<s> छ े
-1.5307933	् छ े
-0.3004107	ू छ े
-0.57972616	ँ छ े
-2.1870203	<s> ह ड
-2.779175	ा ह ड
-1.4918433	श ह ड
-1.6260293	ो ह ड
-1.1030546	ह े ड
-1.3096697	ड े ड
-1.4660866	म े ड
-1.8277224	स े ड
-1.0196811	ट े ड
-1.0692307	र े ड
-1.029829	श े ड
-1.4286551	ब े ड
-1.5556608	क े ड
-1.6559417	ज े ड
-2.167045	द े ड
-1.8023808	न े ड
-1.7851577	़ े ड
-1.4383941	ग े ड
-1.7177691	ल े ड
-1.5256796	प े ड
-1.859962	व े ड
-1.2056885	फ े ड
-0.97120583	भ े ड
-0.8230581	ख े ड
-1.7816639	य े ड
-1.3882388	थ े ड
-1.2220184	घ े ड
-2.4678364	ा ड ड
-3.1925652	् ड ड
-2.3633611	ु ड ड
-1.8846495	क ड ड
-2.8754184	<s> म ड
-3.0678084	ा म ड
-3.0127065	् म ड
-1.4131228	ए म ड
-2.788895	ो म ड
-2.3156943	ु म ड
-2.4947197	ै म ड
-2.3991842	ि म ड
-1.7722274	ह ा ड
-2.2037933	ड ा ड
-1.8762876	म ा ड
-1.963409	स ा ड
-1.9724526	ट ा ड
-1.9882855	र ा ड
-1.9311299	ब ा ड
-2.1520755	क ा ड
-2.0063024	ज ा ड
-2.541166	द ा ड
-1.6274525	न ा ड
-2.3406825	़ ा ड
-1.6216449	ग ा ड
-1.9482085	ल ा ड
-0.59522927	ि ा ड
-1.8912089	प ा ड
-0.75748444	ं ा ड
-1.2389866	व ा ड
-2.1903136	च ा ड
-2.4484847	फ ा ड
-2.2806952	भ ा ड
-1.8516977	ख ा ड
-2.3720498	य ा ड
-2.0247836	त ा ड
-2.239677	ध ा ड
-2.1554196	थ ा ड
-1.8068328	ठ ा ड
-3.6125972	<s> स ड
-2.672022	े स ड
-2.3366246	् स ड
-1.4230483	ए स ड
-2.8851564	ो स ड
-3.113195	ि स ड
-2.5440133	ं स ड
-2.2643025	ू स ड
-1.1701965	ड ् ड
-2.4180357	म ् ड
-2.130876	स ् ड
-3.091731	ट ् ड
-1.0136646	र ् ड
-2.0602334	ब ् ड
-2.4149275	क ् ड
-1.1574342	ज ् ड
-1.1445092	न ् ड
-2.338876	़ ् ड
-2.370555	ग ् ड
-0.8934996	ल ् ड
-2.716066	प ् ड
-1.7984047	व ् ड
-1.685216	च ् ड
-0.14255795	ण ् ड
-3.2761931	े ट ड
-2.5673497	् ट ड
-2.0549574	उ ट ड
-3.0418117	<s> र ड
-2.2282763	ह र ड
-2.9097173	े र ड
-2.3559427	म र ड
-2.6446264	ा र ड
-3.307497	् र ड
-2.388609	ट र ड
-2.1175356	ए र ड
-1.5349877	आ र ड
-2.5343733	ो र ड
-2.3653417	ब र ड
-2.802815	ु र ड
-2.4665413	ग र ड
-2.440297	ै र ड
-2.7831166	ि र ड
-2.5959103	ी र ड
-2.55117	प र ड
-2.827133	व र ड
-2.503456	य र ड
-1.2601624	<s> ए ड
-1.7842695	े ए ड
-1.8657576	ा ए ड
-1.6085951	ो ए ड
-2.14439	ी ए ड
-2.412677	<s> आ ड
-1.8024846	ु आ ड
-1.6587776	ू आ ड
-1.839962	<s> इ ड
-1.1352255	े इ ड
-0.98945737	ा इ ड
-0.91474575	स इ ड
-1.049087	् इ ड
-0.5780634	ए इ ड
-1.0260183	आ इ ड
-0.9480492	ो इ ड
-1.4116002	ु इ ड
-1.1029544	ग इ ड
-0.9752883	ं इ ड
-2.930805	<s> श ड
-1.698805	ह ो ड
-2.1545572	ड ो ड
-1.450295	म ो ड
-1.5486518	स ो ड
-1.3033756	ट ो ड
-1.3791122	र ो ड
-1.3769069	ब ो ड
-1.1762651	क ो ड
-1.8577455	ज ो ड
-1.8994306	द ो ड
-1.6016612	न ो ड
-1.3891339	ग ो ड
-1.3403788	ल ो ड
-1.5328611	प ो ड
-1.6711328	व ो ड
-1.5989769	च ो ड
-1.496931	ख ो ड
-1.6648941	य ो ड
-2.0793388	त ो ड
-1.4791733	ध ो ड
-0.9009131	थ ो ड
-1.245232	ष ो ड
-1.5066136	घ ो ड
-1.2352229	छ ो ड
-2.1384234	<s> ब ड
-2.3514585	ा ब ड
-1.6621572	स ब ड
-1.8615971	र ब ड
-1.6882123	क ब ड
-1.6547544	ग ब ड
-2.0702753	ि ब ड
-2.0081751	अ ब ड
-1.3656499	ह ु ड
-1.9867959	म ु ड
-2.3577025	स ु ड
-1.5507512	ट ु ड
-1.5484039	र ु ड
-1.3956637	ब ु ड
-1.3556225	क ु ड
-2.2277558	द ु ड
-1.9507835	न ु ड
-1.1820718	ग ु ड
-2.0721583	ल ु ड
-1.6841809	प ु ड
-0.37156433	व ु ड
-1.8755213	फ ु ड
-1.9050684	य ु ड
-2.5289278	<s> क ड
-2.3174844	े क ड
-2.5407853	ा क ड
-2.471872	् क ड
-2.0916758	ट क ड
-2.3258398	ए क ड
-2.5221715	ु क ड
-2.0313623	न क ड
-2.354638	ै क ड
-2.2696834	ल क ड
-1.5930839	प क ड
-2.6569588	ं क ड
-2.1111882	अ क ड
-1.3635553	थ क ड
-2.9156756	<s> ज ड
-2.8741105	ा ज ड
-2.7955294	् ज ड
-1.9307334	ई ज ड
-0.90861577	ँ ज ड
-3.0581036	<s> द ड
-2.9121344	ा द ड
-1.7618225	ो द ड
-2.5431798	<s> न ड
-2.5375803	े न ड
-2.5700676	म न ड
-3.08348	ा न ड
-1.8507679	् न ड
-1.704811	ए न ड
-2.268173	इ न ड
-2.728027	ो न ड
-2.1466682	उ न ड
-2.94461	ि न ड
-2.1807122	प न ड
-2.533563	ू न ड
-1.5331769	<s> उ ड
-1.4627817	ा उ ड
-1.1890813	ं उ ड
-0.6065459	े ़ ड
-0.31430143	इ ़ ड
-2.466442	ज ़ ड
-2.5241582	फ ़ ड
-2.8716516	<s> ग ड
-2.0253818	े ग ड
-1.9631193	ा ग ड
-2.0078256	र ग ड
-2.4679778	ो ग ड
-1.646612	ब ग ड
-1.5538778	प ग ड
-2.3375587	ं ग ड
-1.4687995	व ग ड
-0.6048695	ख ग ड
-1.250991	य ग ड
-1.551945	ँ ग ड
-1.2808315	ह ै ड
-1.3282026	ड ै ड
-1.5682963	म ै ड
-2.1329389	स ै ड
-1.9147246	ट ै ड
-1.2067628	र ै ड
-1.6084764	श ै ड
-1.8092433	ब ै ड
-1.5924422	क ै ड
-1.2273474	न ै ड
-1.8945522	ग ै ड
-1.4800719	ल ै ड
-1.059446	प ै ड
-2.1036775	व ै ड
-1.6671817	च ै ड
-2.3763385	<s> ल ड
-2.8408804	े ल ड
-2.508933	म ल ड
-2.4807594	ा ल ड
-3.0212028	् ल ड
-1.5947778	ए ल ड
-2.6154342	इ ल ड
-2.4709587	ो ल ड
-2.4641793	ब ल ड
-2.1888812	ु ल ड
-2.8506033	ि ल ड
-2.5732856	ी ल ड
-1.084466	<s> ि ड
-2.2335145	ह ि ड
-1.8413913	ड ि ड
-1.3244021	म ि ड
-1.5177642	स ि ड
-1.7496978	ट ि ड
-1.696495	र ि ड
-1.5536087	ब ि ड
-1.8404962	क ि ड
-1.9903296	ज ि ड
-1.7488844	न ि ड
-1.8208824	़ ि ड
-2.241633	ग ि ड
-1.7202674	ल ि ड
-1.4708065	प ि ड
-1.5116328	व ि ड
-2.3093395	च ि ड
-1.6858153	फ ि ड
-1.666508	य ि ड
-1.8997597	ह ी ड
-1.6659298	ड ी ड
-1.4671127	म ी ड
-1.2689366	स ी ड
-1.6520174	ट ी ड
-1.6080866	र ी ड
-1.4575081	ब ी ड
-1.6613035	ज ी ड
-2.5833008	न ी ड
-1.5169679	़ ी ड
-2.0406675	ल ी ड
-1.3942323	प ी ड
-1.2437096	व ी ड
-2.1040194	च ी ड
-1.135605	फ ी ड
-2.9938045	<s> प ड
-2.2485275	म प ड
-2.0079615	ा प ड
-2.2787144	स प ड
-2.8668046	् प ड
-1.6988608	आ प ड
-2.0947175	ो प ड
-1.9620848	क प ड
-1.5506036	अ प ड
-1.3676664	ह ं ड
-0.9864524	े ं ड
-0.6982014	ड ं ड
-0.59161067	म ं ड
-0.83879125	ा ं ड
-1.5939641	स ं ड
-1.3658499	ट ं ड
-1.4320575	र ं ड
-0.75840116	ए ं ड
-1.4100256	आ ं ड
-0.6725625	इ ं ड
-1.7012919	श ं ड
-1.5286623	ो ं ड
-1.2163182	ब ं ड
-0.59266776	ु ं ड
-0.8633639	क ं ड
-1.5624343	ज ं ड
-0.9238628	द ं ड
-0.4332096	उ ं ड
-1.1020153	़ ं ड
-1.161784	ग ं ड
-0.4351768	ै ं ड
-1.1976833	ल ं ड
-1.4340627	ि ं ड
-1.7617152	ी ं ड
-0.80766004	प ं ड
-1.365941	व ं ड
-0.9711243	च ं ड
-0.5128039	फ ं ड
-0.60463375	भ ं ड
-0.17766687	ख ं ड
-1.6439354	य ं ड
-0.88013315	अ ं ड
-1.5255815	त ं ड
-1.1921964	ई ं ड
-1.1083686	ू ं ड
-0.8076765	थ ं ड
-0.69481	ौ ं ड
-0.4517129	ठ ं ड
-2.3326945	<s> व ड
-2.4038575	े व ड
-1.8810762	ा व ड
-2.941818	् व ड
-2.2973688	ल व ड
-0.9983115	च व ड
-2.0573814	ा च ड
-0.91002333	ए च ड
-2.2062206	ि च ड
-1.9432895	ी च ड
-2.95009	<s> फ ड
-1.502358	ए फ ड
-2.226444	<s> भ ड
-1.6240284	<s> ख ड
-1.7478681	ा ख ड
-1.1386316	ू ख ड
-2.794769	<s> य ड
-1.6861281	ा य ड
-0.8966825	आ य ड
-1.7890542	ो य ड
-2.8466628	ि य ड
-2.5685108	ी य ड
-2.2645695	<s> अ ड
-0.7774862	ै अ ड
-1.2706146	<s> ई ड
-1.5336771	म ई ड
-1.5270474	ा ई ड
-1.0991083	स ई ड
-1.2598878	र ई ड
-1.1747179	आ ई ड
-1.0876861	न ई ड
-1.3807179	ी ई ड
-1.2436879	ई ई ड
-1.4364605	ड ू ड
-1.2666237	म ू ड
-1.3691111	स ू ड
-1.1307949	ट ू ड
-1.529073	र ू ड
-1.9357786	ब ू ड
-1.7049533	क ू ड
-1.5967098	ज ू ड
-1.3133367	न ू ड
-1.4944924	़ ू ड
-1.6112993	ग ू ड
-1.5079225	ल ू ड
-1.146057	व ू ड
-0.7894187	च ू ड
-1.4104831	फ ू ड
